{"learner":{"attributes":{"scikit_learn":"{\"_estimator_type\": \"classifier\"}"},"feature_names":[],"feature_types":[],"gradient_booster":{"model":{"cats":{"enc":[],"feature_segments":[],"sorted_idx":[]},"gbtree_model_param":{"num_parallel_tree":"1","num_trees":"300"},"iteration_indptr":[0,3,6,9,12,15,18,21,24,27,30,33,36,39,42,45,48,51,54,57,60,63,66,69,72,75,78,81,84,87,90,93,96,99,102,105,108,111,114,117,120,123,126,129,132,135,138,141,144,147,150,153,156,159,162,165,168,171,174,177,180,183,186,189,192,195,198,201,204,207,210,213,216,219,222,225,228,231,234,237,240,243,246,249,252,255,258,261,264,267,270,273,276,279,282,285,288,291,294,297,300],"tree_info":[0,1,2,0,1,2,0,1,2,0,1,2,0,1,2,0,1,2,0,1,2,0,1,2,0,1,2,0,1,2,0,1,2,0,1,2,0,1,2,0,1,2,0,1,2,0,1,2,0,1,2,0,1,2,0,1,2,0,1,2,0,1,2,0,1,2,0,1,2,0,1,2,0,1,2,0,1,2,0,1,2,0,1,2,0,1,2,0,1,2,0,1,2,0,1,2,0,1,2,0,1,2,0,1,2,0,1,2,0,1,2,0,1,2,0,1,2,0,1,2,0,1,2,0,1,2,0,1,2,0,1,2,0,1,2,0,1,2,0,1,2,0,1,2,0,1,2,0,1,2,0,1,2,0,1,2,0,1,2,0,1,2,0,1,2,0,1,2,0,1,2,0,1,2,0,1,2,0,1,2,0,1,2,0,1,2,0,1,2,0,1,2,0,1,2,0,1,2,0,1,2,0,1,2,0,1,2,0,1,2,0,1,2,0,1,2,0,1,2,0,1,2,0,1,2,0,1,2,0,1,2,0,1,2,0,1,2,0,1,2,0,1,2,0,1,2,0,1,2,0,1,2,0,1,2,0,1,2,0,1,2,0,1,2,0,1,2,0,1,2,0,1,2,0,1,2,0,1,2,0,1,2,0,1,2,0,1,2,0,1,2,0,1,2,0,1,2,0,1,2],"trees":[{"base_weights":[-5.7160504E-2,-3.1386063E-1,6.832618E-2,-4.6154198E-1,-2.317303E-1,-2.5132041E-2,1.7774414E-1,-5.0410473E-1,-3.8332993E-1,-2.6812297E-1,-1.518239E-1,-9.54665E-2,1.9827142E-2,7.527644E-2,2.3606898E-1,-5.7675767E-1,-4.7491318E-1,-5.794105E-1,-3.669826E-1,-3.342297E-1,-2.2402689E-1,-1.6843016E-1,6.291851E-2,-1.3095099E-1,-1.6246237E-2,5.744688E-2,-6.8196796E-2,5.978929E-2,3.1470683E-1,1.8610153E-1,3.0021936E-1,-5.81114E-1,-1.4965974E-1,-4.6354687E-1,-6.246499E-1,-5.9517366E-1,4.3969877E-2,-2.8245413E-1,-3.9950836E-1,6.7173296E-1,-3.3794647E-1,-4.897346E-1,-2.147985E-1,2.9055247E-1,-1.74618E-1,-4.333564E-1,1.2504014E-1,-1.1400091E-1,-3.1250688E-1,-3.1300105E-2,3.2741913E-1,3.7620775E-2,2.216525E-1,-2.0323606E-1,-4.029421E-2,-3.481214E-1,6.476318E-2,5.2180815E-1,2.308889E-1,-2.498197E-2,2.1897061E-1,2.877953E-1,6.7189544E-1,-5.8724064E-2,-3.0337382E-2,4.2521764E-2,-6.381958E-2,-4.665191E-2,9.251585E-3,-6.604086E-2,1.2503634E-2,-4.4323795E-2,-6.671149E-2,-2.8940484E-2,1.06904104E-1,-4.0179517E-2,9.910753E-2,-5.3222742E-2,1.0683203E-1,-3.4376167E-2,2.0671709E-2,8.952198E-2,-5.3500917E-2,2.7146656E-3,-2.236783E-2,1.00532286E-1,-2.3740262E-3,-1.5493475E-2,-2.9235423E-2,4.3374177E-2,-5.525126E-2,1.4371065E-3,5.115957E-2,-1.6176542E-2,-6.305869E-3,-3.451417E-2,5.339973E-2,-5.580786E-3,1.09453965E-2,-1.4902811E-2,5.4465245E-2,3.0444205E-2,3.1022462E-3,-1.9361502E-2,2.5403803E-2,2.8947938E-2,-2.2989236E-2,-1.5386759E-2,-3.0842746E-4,8.836651E-2,-3.8498044E-2,6.966007E-3,-3.4791958E-2,-8.8972375E-3,6.816831E-2,1.2091395E-2,4.66786E-2,4.9285237E-2,-4.1986965E-3,-5.933588E-3,2.3156712E-2,-2.1135023E-2,2.964477E-2,4.2920217E-2,8.385811E-2],"categories":[],"categories_nodes":[],"categories_segments":[],"categories_sizes":[],"default_left":[0,0,0,0,0,0,0,0,0,0,0,0,0,0,0,0,0,0,0,0,0,0,0,0,0,0,0,0,0,0,0,0,0,0,0,0,0,0,0,0,0,0,0,0,0,0,0,0,0,0,0,0,0,0,0,0,0,0,0,0,0,0,0,0,0,0,0,0,0,0,0,0,0,0,0,0,0,0,0,0,0,0,0,0,0,0,0,0,0,0,0,0,0,0,0,0,0,0,0,0,0,0,0,0,0,0,0,0,0,0,0,0,0,0,0,0,0,0,0,0,0,0,0,0,0],"id":0,"left_children":[1,3,5,7,9,11,13,15,17,19,21,23,25,27,29,31,33,35,37,39,41,43,45,47,49,51,53,55,57,59,61,63,65,67,69,71,-1,73,75,77,79,81,83,85,87,89,91,93,95,97,99,101,103,105,107,109,111,113,115,117,119,121,123,-1,-1,-1,-1,-1,-1,-1,-1,-1,-1,-1,-1,-1,-1,-1,-1,-1,-1,-1,-1,-1,-1,-1,-1,-1,-1,-1,-1,-1,-1,-1,-1,-1,-1,-1,-1,-1,-1,-1,-1,-1,-1,-1,-1,-1,-1,-1,-1,-1,-1,-1,-1,-1,-1,-1,-1,-1,-1,-1,-1,-1,-1],"loss_changes":[1.7442064E3,2.1553052E2,3.719121E2,2.0954346E1,3.3188538E1,6.2030556E1,1.0011102E2,8.444458E0,6.9768677E0,2.2807678E1,1.2770042E1,2.1501099E1,3.9633114E1,2.2521606E1,3.416626E1,2.0965576E0,4.7109985E0,3.0067406E0,5.586792E0,1.1963348E1,1.1448486E1,9.484055E0,7.9945827E0,1.6221893E1,1.2258643E1,2.7288504E1,1.3494919E1,1.1608881E1,6.28611E0,4.1663513E1,2.138559E1,1.7981262E0,3.9775474E0,4.5629883E0,5.5625763E0,1.5482712E0,0E0,5.7527046E0,5.151108E0,6.2455845E0,9.978546E0,1.0346851E1,9.793167E0,1.0033789E1,7.55101E0,3.2232623E0,9.818375E0,1.17505E1,1.2630234E1,7.833474E0,1.037344E1,1.3164192E1,1.2194603E1,8.123344E0,1.2556194E1,3.4707441E0,1.1427315E1,1.0366495E1,6.80616E0,7.15231E0,1.822696E1,1.9599518E1,5.7245026E0,0E0,0E0,0E0,0E0,0E0,0E0,0E0,0E0,0E0,0E0,0E0,0E0,0E0,0E0,0E0,0E0,0E0,0E0,0E0,0E0,0E0,0E0,0E0,0E0,0E0,0E0,0E0,0E0,0E0,0E0,0E0,0E0,0E0,0E0,0E0,0E0,0E0,0E0,0E0,0E0,0E0,0E0,0E0,0E0,0E0,0E0,0E0,0E0,0E0,0E0,0E0,0E0,0E0,0E0,0E0,0E0,0E0,0E0,0E0,0E0,0E0,0E0],"parents":[2147483647,0,0,1,1,2,2,3,3,4,4,5,5,6,6,7,7,8,8,9,9,10,10,11,11,12,12,13,13,14,14,15,15,16,16,17,17,18,18,19,19,20,20,21,21,22,22,23,23,24,24,25,25,26,26,27,27,28,28,29,29,30,30,31,31,32,32,33,33,34,34,35,35,37,37,38,38,39,39,40,40,41,41,42,42,43,43,44,44,45,45,46,46,47,47,48,48,49,49,50,50,51,51,52,52,53,53,54,54,55,55,56,56,57,57,58,58,59,59,60,60,61,61,62,62],"right_children":[2,4,6,8,10,12,14,16,18,20,22,24,26,28,30,32,34,36,38,40,42,44,46,48,50,52,54,56,58,60,62,64,66,68,70,72,-1,74,76,78,80,82,84,86,88,90,92,94,96,98,100,102,104,106,108,110,112,114,116,118,120,122,124,-1,-1,-1,-1,-1,-1,-1,-1,-1,-1,-1,-1,-1,-1,-1,-1,-1,-1,-1,-1,-1,-1,-1,-1,-1,-1,-1,-1,-1,-1,-1,-1,-1,-1,-1,-1,-1,-1,-1,-1,-1,-1,-1,-1,-1,-1,-1,-1,-1,-1,-1,-1,-1,-1,-1,-1,-1,-1,-1,-1,-1,-1],"split_conditions":[7.4948475E-5,4.6395566E-5,9.84E1,4.3242508E-5,6.6591594E-5,1.00384845E-4,1.6724334E-4,2.8060347E-5,1.12E1,5.918132E-5,3.7524482E-4,6.4E1,4.369984E0,5.3414726E-4,1.924E2,3.5551067E-5,5.0703435E0,2.9224026E-5,-3.8363117E-1,-6.018224E-4,1.725E1,-1.8780298E-3,2.98E1,5.2487373E0,1.366583E-4,1.836845E-4,7.3822914E-5,6.559061E-5,-6.6524285E-1,-8.185849E-1,1.642477E-3,4.1187013E-5,-9.040038E-6,1.219057E0,2.1437054E0,2.2203653E0,4.3969877E-2,7.62E1,3.140527E0,-1.0764609E-3,4.0797744E-4,-3.2198467E0,-2.3562895E-4,5.460551E1,5.616375E-1,2.1914406E-4,9.725952E-5,9.187292E-5,1.5568451E-4,2.5443308E-4,1.1018971E-4,8.2398234E-5,1.4192614E-4,-1.9265758E-3,-1.1444288E0,1.4010213E-5,5.8955283E0,-5.6816E-1,1.5912528E-4,-1.4872056E0,7.601927E-5,1.5657535E-4,1.6357158E0,-5.8724064E-2,-3.0337382E-2,4.2521764E-2,-6.381958E-2,-4.665191E-2,9.251585E-3,-6.604086E-2,1.2503634E-2,-4.4323795E-2,-6.671149E-2,-2.8940484E-2,1.06904104E-1,-4.0179517E-2,9.910753E-2,-5.3222742E-2,1.0683203E-1,-3.4376167E-2,2.0671709E-2,8.952198E-2,-5.3500917E-2,2.7146656E-3,-2.236783E-2,1.00532286E-1,-2.3740262E-3,-1.5493475E-2,-2.9235423E-2,4.3374177E-2,-5.525126E-2,1.4371065E-3,5.115957E-2,-1.6176542E-2,-6.305869E-3,-3.451417E-2,5.339973E-2,-5.580786E-3,1.09453965E-2,-1.4902811E-2,5.4465245E-2,3.0444205E-2,3.1022462E-3,-1.9361502E-2,2.5403803E-2,2.8947938E-2,-2.2989236E-2,-1.5386759E-2,-3.0842746E-4,8.836651E-2,-3.8498044E-2,6.966007E-3,-3.4791958E-2,-8.8972375E-3,6.816831E-2,1.2091395E-2,4.66786E-2,4.9285237E-2,-4.1986965E-3,-5.933588E-3,2.3156712E-2,-2.1135023E-2,2.964477E-2,4.2920217E-2,8.385811E-2],"split_indices":[7,7,10,9,5,9,7,7,10,9,4,10,19,2,10,5,19,25,18,21,11,8,11,19,5,9,5,5,15,16,20,9,2,18,12,19,0,11,16,6,21,18,2,19,23,20,3,13,5,20,7,7,7,21,16,3,15,23,9,15,3,9,19,0,0,0,0,0,0,0,0,0,0,0,0,0,0,0,0,0,0,0,0,0,0,0,0,0,0,0,0,0,0,0,0,0,0,0,0,0,0,0,0,0,0,0,0,0,0,0,0,0,0,0,0,0,0,0,0,0,0,0,0,0,0],"split_type":[0,0,0,0,0,0,0,0,0,0,0,0,0,0,0,0,0,0,0,0,0,0,0,0,0,0,0,0,0,0,0,0,0,0,0,0,0,0,0,0,0,0,0,0,0,0,0,0,0,0,0,0,0,0,0,0,0,0,0,0,0,0,0,0,0,0,0,0,0,0,0,0,0,0,0,0,0,0,0,0,0,0,0,0,0,0,0,0,0,0,0,0,0,0,0,0,0,0,0,0,0,0,0,0,0,0,0,0,0,0,0,0,0,0,0,0,0,0,0,0,0,0,0,0,0],"sum_hessian":[5.4145297E4,1.7777498E4,3.6367797E4,6.351689E3,1.142581E4,1.9614793E4,1.6753004E4,4.1097373E3,2.241952E3,7.848792E3,3.5770176E3,7.6484233E3,1.1966369E4,6.0777065E3,1.0675298E4,1.1725928E3,2.9371443E3,1.6987784E2,2.0720742E3,3.1379487E3,4.7108433E3,3.3204585E3,2.565591E2,5.281894E3,2.366529E3,8.383689E3,3.5826802E3,5.7096377E3,3.6806866E2,6.0032217E3,4.672076E3,1.1603964E3,1.2196358E1,2.7337266E3,2.0341783E2,1.6769992E2,2.177921E0,5.784558E2,1.4936183E3,1.08896055E1,3.127059E3,1.5637474E2,4.5544688E3,4.3558422E1,3.2769001E3,2.787739E1,2.2868172E2,4.832371E3,4.4952292E2,2.268087E3,9.844203E1,7.4815947E3,9.020949E2,6.124314E2,2.9702488E3,6.795114E1,5.641687E3,1.04540215E2,2.6352844E2,8.088799E2,5.194342E3,4.522671E3,1.4940538E2,1.1342614E3,2.6135054E1,5.662595E0,6.5337634E0,2.7193523E3,1.4374279E1,1.9427055E2,9.147268E0,5.6190365E1,1.1150956E2,5.762779E2,2.177921E0,1.491876E3,1.7423369E0,2.6135054E0,8.2761E0,3.0943904E3,3.2668816E1,4.355842E0,1.5201889E2,1.6116615E2,4.3933022E3,1.2631943E1,3.092648E1,2.8095183E3,4.6738187E2,3.0490894E0,2.48283E1,1.7858952E2,5.0092186E1,2.4928484E3,2.339523E3,4.334063E2,1.6116615E1,1.9322516E3,3.3583542E2,3.092648E1,6.751556E1,1.794607E2,7.302134E3,6.490205E1,8.371929E2,3.092648E1,5.8150494E2,7.3221704E2,2.2380317E3,1.3067527E0,6.664439E1,5.576349E3,6.533763E1,2.1779211E1,8.2761E1,1.8076746E2,8.2761E1,2.48283E1,7.840516E2,2.2476146E2,4.9695806E3,7.666282E1,4.4460083E3,6.2288544E1,8.7116844E1],"tree_param":{"num_deleted":"0","num_feature":"28","num_nodes":"125","size_leaf_vector":"1"}},{"base_weights":[1.0885228E-1,5.8572155E-1,-1.3676645E-1,8.7728053E-1,4.2417315E-1,4.4778172E-2,-3.35028E-1,9.9229795E-1,7.57824E-1,5.624402E-1,3.310534E-1,1.6163129E-1,-6.568987E-2,-1.8965106E-1,-4.2054003E-1,7.996262E-1,1.025263E0,9.1881317E-1,7.2192395E-1,8.463241E-1,5.2263224E-1,4.3555808E-1,2.6371545E-1,2.4394922E-1,7.011939E-2,7.349639E-2,-1.1766515E-1,-6.9306577E-3,-2.3959681E-1,-3.4270486E-1,-5.089947E-1,8.236161E-1,1.97657E-1,1.0601665E0,8.804725E-1,1.0945256E0,8.524128E-1,1.0600474E0,7.098119E-1,7.2877485E-1,9.64647E-1,3.0434948E-1,5.647624E-1,2.880439E-1,4.730243E-1,3.1374836E-1,1.7339389E-1,3.589539E-1,1.8346669E-1,1.00403726E-1,-1.7908992E-1,-8.223643E-2,9.820515E-2,-1.3728996E-1,7.7518426E-2,1.9663158E-1,-5.4449283E-2,-2.5436905E-1,-9.69397E-2,-3.588841E-1,-2.1193613E-1,-4.0481842E-1,-5.3423464E-1,5.566553E-2,8.8213444E-2,5.7012636E-2,-1.3429478E-2,1.1849469E-1,1.0300105E-1,9.85621E-2,6.6992864E-2,1.109479E-1,-1.5356687E-2,9.1789685E-2,6.269928E-2,1.0966363E-1,-5.0554045E-2,1.0065446E-1,6.95693E-2,7.7303596E-2,3.1225855E-2,1.0695026E-1,7.591021E-2,2.7115718E-2,8.859055E-2,8.331003E-2,5.4494817E-2,4.741549E-2,2.405297E-2,5.1313967E-2,2.9864276E-2,3.9566047E-2,2.4734942E-2,-6.52662E-3,1.9519325E-2,2.8592348E-2,4.9282525E-2,1.3272549E-2,2.619922E-2,1.8032594E-2,3.3103132E-3,-1.2417545E-2,-4.656044E-2,1.3200708E-2,-1.49413245E-2,1.7499007E-2,4.8025292E-3,-5.478296E-3,-1.8261934E-2,4.287959E-2,3.885055E-3,5.788955E-2,1.2817356E-2,9.139498E-3,-1.2130777E-2,3.3269606E-3,-2.6176754E-2,4.6873093E-4,-2.4969785E-2,-2.8071085E-2,-3.915492E-2,5.8427436E-4,-2.5636286E-2,6.8312074E-4,-4.1777622E-2,-4.485231E-2,-5.5266496E-2],"categories":[],"categories_nodes":[],"categories_segments":[],"categories_sizes":[],"default_left":[0,0,0,0,0,0,0,0,0,0,0,0,0,0,0,0,0,0,0,0,0,0,0,0,0,0,0,0,0,0,0,0,0,0,0,0,0,0,0,0,0,0,0,0,0,0,0,0,0,0,0,0,0,0,0,0,0,0,0,0,0,0,0,0,0,0,0,0,0,0,0,0,0,0,0,0,0,0,0,0,0,0,0,0,0,0,0,0,0,0,0,0,0,0,0,0,0,0,0,0,0,0,0,0,0,0,0,0,0,0,0,0,0,0,0,0,0,0,0,0,0,0,0,0,0,0,0],"id":1,"left_children":[1,3,5,7,9,11,13,15,17,19,21,23,25,27,29,31,33,35,37,39,41,43,45,47,49,51,53,55,57,59,61,63,65,67,69,71,73,75,77,79,81,83,85,87,89,91,93,95,97,99,101,103,105,107,109,111,113,115,117,119,121,123,125,-1,-1,-1,-1,-1,-1,-1,-1,-1,-1,-1,-1,-1,-1,-1,-1,-1,-1,-1,-1,-1,-1,-1,-1,-1,-1,-1,-1,-1,-1,-1,-1,-1,-1,-1,-1,-1,-1,-1,-1,-1,-1,-1,-1,-1,-1,-1,-1,-1,-1,-1,-1,-1,-1,-1,-1,-1,-1,-1,-1,-1,-1,-1,-1],"loss_changes":[6.7016978E3,9.15813E2,1.3593257E3,9.4520996E1,1.6099219E2,2.5450003E2,2.2433105E2,2.1597656E1,1.9019897E1,5.6474243E1,5.254303E1,7.215587E1,7.332771E1,6.1029144E1,7.8074585E1,7.349457E0,1.4279541E1,6.26947E0,1.06710205E1,7.889496E0,4.047278E1,1.6061035E1,2.0521667E1,3.501474E1,3.427027E1,1.0613988E1,2.8278366E1,1.3907083E1,1.1042999E1,1.2721252E1,1.3766113E1,7.3191223E0,2.704245E0,7.8881836E0,1.2415039E1,3.2643738E0,6.104553E0,5.9640427E0,1.05946045E1,5.547165E0,5.7570496E0,1.36039505E1,1.9237305E1,5.157589E0,1.6184753E1,1.5831726E1,8.468742E0,1.684291E1,1.314267E1,2.1763844E1,7.685089E0,5.4595394E0,9.15906E0,2.5070038E1,9.149942E0,7.0465345E0,1.1375891E1,1.0135101E1,7.6767335E0,1.3631226E1,6.4684696E0,5.5568542E0,6.5092773E0,0E0,0E0,0E0,0E0,0E0,0E0,0E0,0E0,0E0,0E0,0E0,0E0,0E0,0E0,0E0,0E0,0E0,0E0,0E0,0E0,0E0,0E0,0E0,0E0,0E0,0E0,0E0,0E0,0E0,0E0,0E0,0E0,0E0,0E0,0E0,0E0,0E0,0E0,0E0,0E0,0E0,0E0,0E0,0E0,0E0,0E0,0E0,0E0,0E0,0E0,0E0,0E0,0E0,0E0,0E0,0E0,0E0,0E0,0E0,0E0,0E0,0E0,0E0,0E0],"parents":[2147483647,0,0,1,1,2,2,3,3,4,4,5,5,6,6,7,7,8,8,9,9,10,10,11,11,12,12,13,13,14,14,15,15,16,16,17,17,18,18,19,19,20,20,21,21,22,22,23,23,24,24,25,25,26,26,27,27,28,28,29,29,30,30,31,31,32,32,33,33,34,34,35,35,36,36,37,37,38,38,39,39,40,40,41,41,42,42,43,43,44,44,45,45,46,46,47,47,48,48,49,49,50,50,51,51,52,52,53,53,54,54,55,55,56,56,57,57,58,58,59,59,60,60,61,61,62,62],"right_children":[2,4,6,8,10,12,14,16,18,20,22,24,26,28,30,32,34,36,38,40,42,44,46,48,50,52,54,56,58,60,62,64,66,68,70,72,74,76,78,80,82,84,86,88,90,92,94,96,98,100,102,104,106,108,110,112,114,116,118,120,122,124,126,-1,-1,-1,-1,-1,-1,-1,-1,-1,-1,-1,-1,-1,-1,-1,-1,-1,-1,-1,-1,-1,-1,-1,-1,-1,-1,-1,-1,-1,-1,-1,-1,-1,-1,-1,-1,-1,-1,-1,-1,-1,-1,-1,-1,-1,-1,-1,-1,-1,-1,-1,-1,-1,-1,-1,-1,-1,-1,-1,-1,-1,-1,-1,-1],"split_conditions":[7.6392535E-5,4.708201E-5,9.7E1,3.96199E-5,6.239272E-5,6.24E1,1.6319411E-4,-2.2853173E-4,3.4585933E-5,4.0949195E-5,3.74E1,1.0119405E-4,1.0278865E-4,1.10926565E-4,1.825E2,5.521176E-5,4.0681116E-5,1.44E1,-3.7880892E-1,1.9744879E0,-1.3604821E-4,-8.2559615E-1,7.1262875E-5,3.9E1,2.0916223E-4,-4.194399E-4,9.807847E0,8.3615785E-5,3.593466E0,5.150186E0,2.4262685E-4,-4.6706715E-4,5.111981E-1,2.0408917E-5,3.12E1,9.022403E-1,5.283207E-5,5.56E1,1.225E1,4.82E1,3.625352E-5,4.7285134E-1,4.3994547E-5,-4.3184733E-1,7.1680086E-5,7.415629E-5,-2.4744408E-4,2.4880805E0,1.0867656E0,4.64E1,3.1200965E-4,8.147558E-5,1.0136571E0,1.2719272E-4,6.0254086E-5,-7.382847E-1,9.7580305E-5,9.498353E-5,1.3592764E0,1.7028344E-4,9.9738434E-5,1.1911642E-4,2.012E2,5.566553E-2,8.8213444E-2,5.7012636E-2,-1.3429478E-2,1.1849469E-1,1.0300105E-1,9.85621E-2,6.6992864E-2,1.109479E-1,-1.5356687E-2,9.1789685E-2,6.269928E-2,1.0966363E-1,-5.0554045E-2,1.0065446E-1,6.95693E-2,7.7303596E-2,3.1225855E-2,1.0695026E-1,7.591021E-2,2.7115718E-2,8.859055E-2,8.331003E-2,5.4494817E-2,4.741549E-2,2.405297E-2,5.1313967E-2,2.9864276E-2,3.9566047E-2,2.4734942E-2,-6.52662E-3,1.9519325E-2,2.8592348E-2,4.9282525E-2,1.3272549E-2,2.619922E-2,1.8032594E-2,3.3103132E-3,-1.2417545E-2,-4.656044E-2,1.3200708E-2,-1.49413245E-2,1.7499007E-2,4.8025292E-3,-5.478296E-3,-1.8261934E-2,4.287959E-2,3.885055E-3,5.788955E-2,1.2817356E-2,9.139498E-3,-1.2130777E-2,3.3269606E-3,-2.6176754E-2,4.6873093E-4,-2.4969785E-2,-2.8071085E-2,-3.915492E-2,5.8427436E-4,-2.5636286E-2,6.8312074E-4,-4.1777622E-2,-4.485231E-2,-5.5266496E-2],"split_indices":[7,7,10,9,9,10,5,8,7,5,10,9,9,9,11,0,3,10,19,19,20,15,5,10,13,4,17,9,17,17,7,8,17,5,10,23,9,11,11,10,5,18,9,18,7,9,20,19,19,10,7,9,12,9,13,18,5,7,16,9,3,13,10,0,0,0,0,0,0,0,0,0,0,0,0,0,0,0,0,0,0,0,0,0,0,0,0,0,0,0,0,0,0,0,0,0,0,0,0,0,0,0,0,0,0,0,0,0,0,0,0,0,0,0,0,0,0,0,0,0,0,0,0,0,0,0,0],"split_type":[0,0,0,0,0,0,0,0,0,0,0,0,0,0,0,0,0,0,0,0,0,0,0,0,0,0,0,0,0,0,0,0,0,0,0,0,0,0,0,0,0,0,0,0,0,0,0,0,0,0,0,0,0,0,0,0,0,0,0,0,0,0,0,0,0,0,0,0,0,0,0,0,0,0,0,0,0,0,0,0,0,0,0,0,0,0,0,0,0,0,0,0,0,0,0,0,0,0,0,0,0,0,0,0,0,0,0,0,0,0,0,0,0,0,0,0,0,0,0,0,0,0,0,0,0,0,0],"sum_hessian":[5.7215184E4,1.945054E4,3.7764645E4,6.933207E3,1.2517332E4,1.9713818E4,1.8050826E4,3.5285112E3,3.4046958E3,5.03547E3,7.481862E3,9.57982E3,1.0133999E4,6.6864966E3,1.1364329E4,5.1919653E2,3.0093147E3,6.1631573E2,2.7883801E3,6.1677606E2,4.418694E3,2.9296863E3,4.5521753E3,5.0423745E3,4.5374463E3,2.7552397E3,7.378759E3,1.4356152E3,5.2508813E3,6.047627E3,5.3167017E3,4.989442E2,2.0252348E1,2.4196953E3,5.896195E2,1.6478047E2,4.515353E2,9.3436966E1,2.694943E3,3.129908E2,3.0378522E2,7.1619666E2,3.7024973E3,5.951428E2,2.3345435E3,2.927845E3,1.6243303E3,1.7361785E3,3.3061958E3,4.046327E3,4.9111942E2,3.7696985E2,2.37827E3,6.7049077E3,6.738508E2,2.711053E2,1.16451E3,4.7574604E3,4.9342084E2,5.38022E3,6.674069E2,1.0402343E3,4.2764673E3,9.159585E1,4.0734836E2,9.205612E0,1.1046735E1,4.635026E2,1.9561926E3,3.9077826E2,1.9884123E2,1.6293935E2,1.8411225E0,3.4751187E2,1.0402342E2,9.159585E1,1.8411225E0,1.19212685E2,2.5757305E3,2.8215204E2,3.0838802E1,1.9838095E2,1.0540427E2,6.7891394E2,3.728273E1,2.517735E2,3.4507239E3,1.19212685E2,4.7593018E2,1.8963562E3,4.3818716E2,1.3085779E3,1.6192672E3,1.3578279E2,1.4885476E3,1.1253861E3,6.107924E2,2.0100455E3,1.2961503E3,1.8489473E3,2.1973796E3,4.13332E2,7.778742E1,8.975472E1,2.8721512E2,9.389725E2,1.4392975E3,2.37827E3,4.3266377E3,6.582013E1,6.080307E2,4.0044415E1,2.3106087E2,3.659231E2,7.985869E2,1.19212685E2,4.638248E3,2.96881E2,1.9653983E2,1.5884285E3,3.7917917E3,1.13229034E2,5.5417786E2,3.1759363E1,1.00847485E3,7.6130414E2,3.515163E3],"tree_param":{"num_deleted":"0","num_feature":"28","num_nodes":"127","size_leaf_vector":"1"}},{"base_weights":[-5.787701E-2,-2.8468835E-1,9.249014E-2,-4.4278052E-1,-1.8209916E-1,-3.2970417E-2,1.7090958E-1,-5.3722924E-1,-3.745156E-1,-7.028011E-2,-2.1605065E-1,-1.17511936E-1,1.3287169E-2,9.2424236E-2,2.1380073E-1,-4.5431584E-1,-5.71722E-1,-4.335393E-1,-3.2841393E-1,6.4771265E-1,-7.690658E-2,-2.8337863E-1,-1.6272375E-1,-3.7843692E-1,-9.804294E-2,-7.50077E-2,4.2791784E-2,1.373327E-2,1.16290204E-1,2.8135094E-1,1.749852E-1,-4.5838398E-1,8.518571E-2,8.518571E-2,-5.735447E-1,-5.9307575E-1,-4.1239274E-1,-9.991881E-2,-3.480938E-1,8.179205E-1,-2.2482611E-1,-1.1430606E-1,4.5702178E-2,-2.5071338E-1,-3.879105E-1,-2.7575207E-1,-1.3919608E-1,-4.566947E-1,2.105188E-1,-1.1149937E-1,9.004702E-2,1.3861093E-1,-1.1244018E-1,-1.0274328E-2,8.7025404E-2,3.415452E-2,-1.8679935E-1,1.2031256E-1,-2.823829E-1,9.105696E-1,2.760117E-1,1.3166048E-1,2.4176523E-1,-2.6629332E-2,-4.7947176E-2,3.4619354E-2,-5.7560336E-2,-6.0035296E-2,4.504038E-2,-4.219643E-2,-5.569374E-3,-1.5117195E-2,5.7614483E-2,-3.1412154E-2,-4.1309357E-2,9.755019E-2,-5.0416972E-2,-5.5398434E-2,4.504038E-2,-2.1440053E-2,-6.765464E-3,9.879079E-2,3.2542106E-3,-1.4942244E-2,-2.7747145E-2,-2.6633874E-2,-4.7507204E-2,8.280619E-2,-2.8262688E-2,-1.8891267E-3,-1.5507403E-2,1.8190388E-3,-5.1685005E-2,-2.7118057E-2,5.023851E-2,-9.004864E-3,-2.0497441E-2,-2.3875365E-2,1.6174123E-2,7.135809E-2,7.468951E-3,8.183354E-2,-1.1716305E-2,-2.512564E-3,2.333453E-2,1.2530819E-2,-7.5208717E-3,4.5796666E-2,2.0751127E-3,5.942967E-3,-3.7187926E-2,1.0895758E-2,3.8769726E-2,8.0271144E-5,-4.9001012E-2,1.0645773E-1,-3.828798E-2,2.1769028E-2,3.2342985E-2,2.0511448E-2,8.67873E-3,2.684322E-2,4.51209E-3],"categories":[],"categories_nodes":[],"categories_segments":[],"categories_sizes":[],"default_left":[0,0,0,0,0,0,0,0,0,0,0,0,0,0,0,0,0,0,0,0,0,0,0,0,0,0,0,0,0,0,0,0,0,0,0,0,0,0,0,0,0,0,0,0,0,0,0,0,0,0,0,0,0,0,0,0,0,0,0,0,0,0,0,0,0,0,0,0,0,0,0,0,0,0,0,0,0,0,0,0,0,0,0,0,0,0,0,0,0,0,0,0,0,0,0,0,0,0,0,0,0,0,0,0,0,0,0,0,0,0,0,0,0,0,0,0,0,0,0,0,0,0,0],"id":2,"left_children":[1,3,5,7,9,11,13,15,17,19,21,23,25,27,29,31,33,35,37,39,41,43,45,47,49,51,53,55,57,59,61,63,-1,-1,65,67,69,71,73,75,77,79,81,83,85,87,89,91,93,95,97,99,101,103,105,107,109,111,113,115,117,119,121,-1,-1,-1,-1,-1,-1,-1,-1,-1,-1,-1,-1,-1,-1,-1,-1,-1,-1,-1,-1,-1,-1,-1,-1,-1,-1,-1,-1,-1,-1,-1,-1,-1,-1,-1,-1,-1,-1,-1,-1,-1,-1,-1,-1,-1,-1,-1,-1,-1,-1,-1,-1,-1,-1,-1,-1,-1,-1,-1,-1],"loss_changes":[1.8462449E3,3.4993555E2,3.2028146E2,5.4553955E1,4.967929E1,4.8970932E1,6.741528E1,9.923218E0,1.3280273E1,1.4562086E1,3.600345E1,2.2459595E1,2.1089996E1,1.3296051E1,3.3912537E1,5.9748383E0,7.003235E0,7.0428467E0,1.2437927E1,4.342224E0,1.386828E1,1.5050995E1,1.4867493E1,1.4252468E1,1.0443882E1,1.6229843E1,1.4243593E1,6.758664E0,8.745934E0,1.5622772E1,2.3775192E1,4.1188507E0,0E0,0E0,4.94812E0,2.1728287E0,6.4995728E0,7.7570677E0,5.5085144E0,5.417941E0,1.4396623E0,1.0804308E1,8.738628E0,9.127487E0,1.1046585E1,7.554825E0,8.863197E0,7.763405E0,5.297278E0,7.696396E0,6.5398006E0,1.1075039E1,7.6829834E0,9.989327E0,2.0563019E1,8.496003E0,6.9739895E0,1.6289757E1,3.2086015E0,8.24065E0,1.2890808E1,1.6439415E1,1.6960464E1,0E0,0E0,0E0,0E0,0E0,0E0,0E0,0E0,0E0,0E0,0E0,0E0,0E0,0E0,0E0,0E0,0E0,0E0,0E0,0E0,0E0,0E0,0E0,0E0,0E0,0E0,0E0,0E0,0E0,0E0,0E0,0E0,0E0,0E0,0E0,0E0,0E0,0E0,0E0,0E0,0E0,0E0,0E0,0E0,0E0,0E0,0E0,0E0,0E0,0E0,0E0,0E0,0E0,0E0,0E0,0E0,0E0,0E0,0E0,0E0],"parents":[2147483647,0,0,1,1,2,2,3,3,4,4,5,5,6,6,7,7,8,8,9,9,10,10,11,11,12,12,13,13,14,14,15,15,16,16,17,17,18,18,19,19,20,20,21,21,22,22,23,23,24,24,25,25,26,26,27,27,28,28,29,29,30,30,31,31,34,34,35,35,36,36,37,37,38,38,39,39,40,40,41,41,42,42,43,43,44,44,45,45,46,46,47,47,48,48,49,49,50,50,51,51,52,52,53,53,54,54,55,55,56,56,57,57,58,58,59,59,60,60,61,61,62,62],"right_children":[2,4,6,8,10,12,14,16,18,20,22,24,26,28,30,32,34,36,38,40,42,44,46,48,50,52,54,56,58,60,62,64,-1,-1,66,68,70,72,74,76,78,80,82,84,86,88,90,92,94,96,98,100,102,104,106,108,110,112,114,116,118,120,122,-1,-1,-1,-1,-1,-1,-1,-1,-1,-1,-1,-1,-1,-1,-1,-1,-1,-1,-1,-1,-1,-1,-1,-1,-1,-1,-1,-1,-1,-1,-1,-1,-1,-1,-1,-1,-1,-1,-1,-1,-1,-1,-1,-1,-1,-1,-1,-1,-1,-1,-1,-1,-1,-1,-1,-1,-1,-1,-1,-1],"split_conditions":[8.919279E-5,5.3088213E-5,8.32E1,3.765357E-5,-1.1794512E-4,6.8710724E-5,1.5034001E-4,-1.0981519E-4,4.7038327E-5,-1.4876552E-3,6.758041E-5,2.405E1,4.98E1,1.09412875E-4,-3.6306682E-4,5.69E1,-3.8259753E-4,1.32E1,-1.418792E-4,9.701556E-5,9.510996E-5,2.0349758E0,3.04E1,1.1106365E-4,3.3999528E-5,-2.2008474E-4,1.13261754E-4,1.3345E2,5.499513E-4,-7.100436E-1,2.3583407E-4,-1.1243658E0,8.518571E-2,8.518571E-2,-8.0109644E-1,4.48E1,1.4912775E0,4.8525133E0,2.0063272E0,1.5850466E0,1.5630951E-4,-6.2806684E-1,2.26E1,-3.1397134E-1,-5.9191803E-5,-2.8240674E0,-1.799402E-4,-2.8706863E-4,6.760179E-5,1.6750098E-4,-5.6816E-1,-3.265599E-3,-3.580506E-4,1.6464103E-3,7.468034E-1,3.544921E-5,-8.53365E-6,2.359396E1,9.9391294E-1,2.69611E-4,7.055079E-1,-7.725231E-2,5.101615E-4,-2.6629332E-2,-4.7947176E-2,3.4619354E-2,-5.7560336E-2,-6.0035296E-2,4.504038E-2,-4.219643E-2,-5.569374E-3,-1.5117195E-2,5.7614483E-2,-3.1412154E-2,-4.1309357E-2,9.755019E-2,-5.0416972E-2,-5.5398434E-2,4.504038E-2,-2.1440053E-2,-6.765464E-3,9.879079E-2,3.2542106E-3,-1.4942244E-2,-2.7747145E-2,-2.6633874E-2,-4.7507204E-2,8.280619E-2,-2.8262688E-2,-1.8891267E-3,-1.5507403E-2,1.8190388E-3,-5.1685005E-2,-2.7118057E-2,5.023851E-2,-9.004864E-3,-2.0497441E-2,-2.3875365E-2,1.6174123E-2,7.135809E-2,7.468951E-3,8.183354E-2,-1.1716305E-2,-2.512564E-3,2.333453E-2,1.2530819E-2,-7.5208717E-3,4.5796666E-2,2.0751127E-3,5.942967E-3,-3.7187926E-2,1.0895758E-2,3.8769726E-2,8.0271144E-5,-4.9001012E-2,1.0645773E-1,-3.828798E-2,2.1769028E-2,3.2342985E-2,2.0511448E-2,8.67873E-3,2.684322E-2,4.51209E-3],"split_indices":[9,7,10,7,20,3,5,8,9,8,7,11,10,7,21,11,6,10,2,7,3,19,10,13,25,20,7,11,7,19,7,18,0,0,19,11,16,15,19,16,3,15,10,18,8,18,21,21,5,20,23,8,24,8,16,3,20,19,12,2,19,16,5,0,0,0,0,0,0,0,0,0,0,0,0,0,0,0,0,0,0,0,0,0,0,0,0,0,0,0,0,0,0,0,0,0,0,0,0,0,0,0,0,0,0,0,0,0,0,0,0,0,0,0,0,0,0,0,0,0,0,0,0],"split_type":[0,0,0,0,0,0,0,0,0,0,0,0,0,0,0,0,0,0,0,0,0,0,0,0,0,0,0,0,0,0,0,0,0,0,0,0,0,0,0,0,0,0,0,0,0,0,0,0,0,0,0,0,0,0,0,0,0,0,0,0,0,0,0,0,0,0,0,0,0,0,0,0,0,0,0,0,0,0,0,0,0,0,0,0,0,0,0,0,0,0,0,0,0,0,0,0,0,0,0,0,0,0,0,0,0,0,0,0,0,0,0,0,0,0,0,0,0,0,0,0,0,0,0],"sum_hessian":[5.4132406E4,2.1580238E4,3.255217E4,8.491435E3,1.3088803E4,1.2520937E4,2.0031234E4,3.559618E3,4.931817E3,3.0492346E3,1.0039568E4,4.427531E3,8.093406E3,7.079607E3,1.2951627E4,1.0499436E3,2.5096743E3,2.1591125E3,2.7727046E3,2.6999794E1,3.0222349E3,4.435369E3,5.604199E3,3.0614282E2,4.1213877E3,2.0267264E3,6.066679E3,1.6478584E3,5.4317485E3,4.724093E3,8.227534E3,1.0473307E3,2.612883E0,2.612883E0,2.5070615E3,2.4953035E2,1.9095822E3,2.2035315E2,2.5523513E3,2.2644987E1,4.3548055E0,2.3158855E3,7.063494E2,3.381942E3,1.0534274E3,9.6371844E2,4.6404805E3,2.704334E2,3.5709404E1,3.8465996E3,2.747882E2,3.0178802E2,1.7249384E3,2.7583337E3,3.3083457E3,1.4963112E3,1.5154723E2,5.3781846E3,5.3564106E1,3.832229E1,4.6857705E3,4.9919136E3,3.2356204E3,1.04950806E2,9.423799E2,5.225766E0,2.5018357E3,2.482239E2,1.3064415E0,1.8595018E3,5.008026E1,2.0554681E2,1.4806338E1,1.6800839E3,8.722675E2,2.0467585E1,2.1774027E0,3.0483637E0,1.3064415E0,7.350911E2,1.5807943E3,8.709611E0,6.9763983E2,7.080914E2,2.6738506E3,4.4157727E2,6.1185016E2,5.225766E0,9.584927E2,5.413023E2,4.099178E3,3.0483637E1,2.3994977E2,1.3499897E1,2.2209507E1,3.1302341E3,7.163655E2,4.877382E1,2.260144E2,2.9177197E1,2.726108E2,7.8386497E0,1.7170997E3,2.6006897E3,1.5764395E2,2.676899E3,6.314468E2,4.4854496E1,1.4514567E3,6.532208E1,8.622514E1,5.1604443E3,2.1774026E2,2.308047E1,3.0483637E1,3.440296E1,3.9193249E0,2.1038064E3,2.581964E3,1.8917274E3,3.100186E3,2.8489136E3,3.8670673E2],"tree_param":{"num_deleted":"0","num_feature":"28","num_nodes":"123","size_leaf_vector":"1"}},{"base_weights":[-5.2822474E-2,-2.9485214E-1,6.293563E-2,-4.374378E-1,-2.166588E-1,-2.3206891E-2,1.6269623E-1,-4.7911346E-1,-3.6141026E-1,-2.51485E-1,-1.4065093E-1,-9.906669E-2,1.2990412E-2,6.837443E-2,2.1598369E-1,-5.5073416E-1,-4.5051834E-1,-3.796808E-1,-1.9301616E-1,-4.0652546E-1,-2.3333591E-1,-1.5660854E-1,6.383774E-2,-1.519142E-1,-5.2542627E-2,4.1806843E-2,-6.645618E-2,5.3847253E-2,2.908166E-1,6.981533E-2,2.3413476E-1,-5.5509853E-1,-1.3146642E-1,-4.3931755E-1,-5.993587E-1,-3.2984096E-1,-4.6401462E-1,-2.5619853E-1,4.276653E-2,-4.4084904E-1,-1.0004625E-1,-2.948677E-1,-1.9710465E-1,2.8038248E-1,-1.6259377E-1,-4.157491E-1,1.2261381E-1,-1.0674682E-1,-2.4239565E-1,-6.622466E-2,1.1432596E-1,2.4361674E-2,2.03972E-1,-2.0170943E-1,-3.7112128E-2,-3.3275443E-1,5.8470704E-2,4.816311E-1,2.128694E-1,-1.565312E-2,3.6380517E-1,1.9726911E-1,2.8677267E-1,-5.0375152E-2,-5.9361815E-2,4.1835178E-2,-6.1685115E-2,-4.4227883E-2,1.0274217E-2,-6.3545845E-2,1.3249739E-2,-2.1393383E-2,-3.7988413E-2,-4.7708012E-2,1.902109E-2,-2.8173033E-2,3.8507793E-2,-2.1116784E-2,4.266291E-2,8.411965E-2,-4.4996336E-2,-3.0231887E-2,1.5808834E-2,6.367727E-2,-2.9915998E-2,3.1090016E-3,-2.064048E-2,9.32407E-2,-1.6745422E-3,-2.4117446E-2,-1.3425651E-2,6.3352145E-2,-5.0791886E-2,1.770642E-3,4.8264205E-2,6.628401E-2,-1.1593624E-2,8.030892E-2,-2.4886316E-2,-4.9541784E-3,-2.1878896E-2,-1.5909354E-3,2.9729068E-2,-4.164908E-3,4.582315E-3,2.8814508E-2,6.877838E-3,1.0163489E-2,-2.471126E-2,-1.877143E-2,-1.1906355E-3,8.716133E-2,-3.6968846E-2,-3.5081317E-5,8.971028E-3,6.216214E-2,-1.617508E-2,1.100516E-2,4.3086343E-2,-3.1885137E-3,4.19254E-2,2.2731548E-2,7.560589E-2,1.2591893E-2,2.57556E-2,3.9000448E-2,2.1462869E-2],"categories":[],"categories_nodes":[],"categories_segments":[],"categories_sizes":[],"default_left":[0,0,0,0,0,0,0,0,0,0,0,0,0,0,0,0,0,0,0,0,0,0,0,0,0,0,0,0,0,0,0,0,0,0,0,0,0,0,0,0,0,0,0,0,0,0,0,0,0,0,0,0,0,0,0,0,0,0,0,0,0,0,0,0,0,0,0,0,0,0,0,0,0,0,0,0,0,0,0,0,0,0,0,0,0,0,0,0,0,0,0,0,0,0,0,0,0,0,0,0,0,0,0,0,0,0,0,0,0,0,0,0,0,0,0,0,0,0,0,0,0,0,0,0,0,0,0],"id":3,"left_children":[1,3,5,7,9,11,13,15,17,19,21,23,25,27,29,31,33,35,37,39,41,43,45,47,49,51,53,55,57,59,61,63,65,67,69,71,73,75,77,79,81,83,85,87,89,91,93,95,97,99,101,103,105,107,109,111,113,115,117,119,121,123,125,-1,-1,-1,-1,-1,-1,-1,-1,-1,-1,-1,-1,-1,-1,-1,-1,-1,-1,-1,-1,-1,-1,-1,-1,-1,-1,-1,-1,-1,-1,-1,-1,-1,-1,-1,-1,-1,-1,-1,-1,-1,-1,-1,-1,-1,-1,-1,-1,-1,-1,-1,-1,-1,-1,-1,-1,-1,-1,-1,-1,-1,-1,-1,-1],"loss_changes":[1.5116372E3,1.9453015E2,3.136585E2,1.9412964E1,2.9812317E1,5.3785507E1,8.499057E1,7.9228516E0,6.6731873E0,2.1660248E1,1.1578972E1,1.5548592E1,3.0361515E1,1.9718704E1,2.8654816E1,2.0019226E0,4.4993896E0,8.157166E0,3.2386398E0,8.4646E0,1.5377167E1,8.647926E0,7.3052025E0,1.207827E1,7.6935034E0,2.7526127E1,1.4002692E1,1.0268246E1,5.4624386E0,3.0035955E1,1.859668E1,1.9200134E0,3.7253664E0,4.316284E0,5.2940674E0,7.146927E0,6.3473816E0,2.9085321E0,4.636919E0,8.874664E0,4.368805E0,1.0443085E1,9.26091E0,8.69608E0,7.193863E0,3.0610232E0,8.679429E0,1.4060848E1,6.862789E0,7.9097824E0,6.092288E0,1.24512825E1,1.0734966E1,8.689535E0,1.1013551E1,3.3430448E0,1.0413279E1,9.802704E0,5.946726E0,6.556831E0,1.4242527E1,2.4298416E1,2.938681E1,0E0,0E0,0E0,0E0,0E0,0E0,0E0,0E0,0E0,0E0,0E0,0E0,0E0,0E0,0E0,0E0,0E0,0E0,0E0,0E0,0E0,0E0,0E0,0E0,0E0,0E0,0E0,0E0,0E0,0E0,0E0,0E0,0E0,0E0,0E0,0E0,0E0,0E0,0E0,0E0,0E0,0E0,0E0,0E0,0E0,0E0,0E0,0E0,0E0,0E0,0E0,0E0,0E0,0E0,0E0,0E0,0E0,0E0,0E0,0E0,0E0,0E0,0E0,0E0],"parents":[2147483647,0,0,1,1,2,2,3,3,4,4,5,5,6,6,7,7,8,8,9,9,10,10,11,11,12,12,13,13,14,14,15,15,16,16,17,17,18,18,19,19,20,20,21,21,22,22,23,23,24,24,25,25,26,26,27,27,28,28,29,29,30,30,31,31,32,32,33,33,34,34,35,35,36,36,37,37,38,38,39,39,40,40,41,41,42,42,43,43,44,44,45,45,46,46,47,47,48,48,49,49,50,50,51,51,52,52,53,53,54,54,55,55,56,56,57,57,58,58,59,59,60,60,61,61,62,62],"right_children":[2,4,6,8,10,12,14,16,18,20,22,24,26,28,30,32,34,36,38,40,42,44,46,48,50,52,54,56,58,60,62,64,66,68,70,72,74,76,78,80,82,84,86,88,90,92,94,96,98,100,102,104,106,108,110,112,114,116,118,120,122,124,126,-1,-1,-1,-1,-1,-1,-1,-1,-1,-1,-1,-1,-1,-1,-1,-1,-1,-1,-1,-1,-1,-1,-1,-1,-1,-1,-1,-1,-1,-1,-1,-1,-1,-1,-1,-1,-1,-1,-1,-1,-1,-1,-1,-1,-1,-1,-1,-1,-1,-1,-1,-1,-1,-1,-1,-1,-1,-1,-1,-1,-1,-1,-1,-1],"split_conditions":[7.4948475E-5,4.6395566E-5,9.84E1,4.3242508E-5,6.6591594E-5,9.508601E-5,1.6724334E-4,2.8060347E-5,4.8776594E-5,2.135E1,3.7524482E-4,9.187292E-5,4.7284546E0,5.3414726E-4,-8.5423625E-1,3.5551067E-5,5.0703435E0,1.810627E-1,1.2621084E-4,4.005414E-4,5.918132E-5,-1.8780298E-3,2.98E1,1.9192574E0,1.4847444E-4,1.836845E-4,7.3822914E-5,6.559061E-5,-6.6524285E-1,2.3295E2,2.4851976E-4,2.2091794E-5,-9.040038E-6,1.219057E0,2.1437054E0,-4.4085622E-1,3.2495632E0,1.7627119E0,5.2211504E-5,-3.2198467E0,2.7693884E-2,-6.018224E-4,-2.6530723E-4,5.460551E1,3.039942E-1,1.44E1,9.725952E-5,-1.1113784E0,-3.2198467E0,1.0421219E-4,7.793385E-5,8.109091E-1,1.7554768E0,3.19E1,-3.042697E0,-1.6244419E0,-1.4475381E-4,5.3483945E-1,1.5912528E-4,7.2197337E-4,2.394269E0,2.2599444E-4,3.0134156E-1,-5.0375152E-2,-5.9361815E-2,4.1835178E-2,-6.1685115E-2,-4.4227883E-2,1.0274217E-2,-6.3545845E-2,1.3249739E-2,-2.1393383E-2,-3.7988413E-2,-4.7708012E-2,1.902109E-2,-2.8173033E-2,3.8507793E-2,-2.1116784E-2,4.266291E-2,8.411965E-2,-4.4996336E-2,-3.0231887E-2,1.5808834E-2,6.367727E-2,-2.9915998E-2,3.1090016E-3,-2.064048E-2,9.32407E-2,-1.6745422E-3,-2.4117446E-2,-1.3425651E-2,6.3352145E-2,-5.0791886E-2,1.770642E-3,4.8264205E-2,6.628401E-2,-1.1593624E-2,8.030892E-2,-2.4886316E-2,-4.9541784E-3,-2.1878896E-2,-1.5909354E-3,2.9729068E-2,-4.164908E-3,4.582315E-3,2.8814508E-2,6.877838E-3,1.0163489E-2,-2.471126E-2,-1.877143E-2,-1.1906355E-3,8.716133E-2,-3.6968846E-2,-3.5081317E-5,8.971028E-3,6.216214E-2,-1.617508E-2,1.100516E-2,4.3086343E-2,-3.1885137E-3,4.19254E-2,2.2731548E-2,7.560589E-2,1.2591893E-2,2.57556E-2,3.9000448E-2,2.1462869E-2],"split_indices":[7,7,10,9,5,9,7,7,24,11,4,13,19,2,16,5,19,16,2,8,9,8,11,19,3,9,5,5,15,11,21,5,2,18,12,18,18,12,9,18,23,21,20,19,19,10,3,16,18,7,21,12,19,11,16,14,2,18,9,13,15,9,17,0,0,0,0,0,0,0,0,0,0,0,0,0,0,0,0,0,0,0,0,0,0,0,0,0,0,0,0,0,0,0,0,0,0,0,0,0,0,0,0,0,0,0,0,0,0,0,0,0,0,0,0,0,0,0,0,0,0,0,0,0,0,0,0],"split_type":[0,0,0,0,0,0,0,0,0,0,0,0,0,0,0,0,0,0,0,0,0,0,0,0,0,0,0,0,0,0,0,0,0,0,0,0,0,0,0,0,0,0,0,0,0,0,0,0,0,0,0,0,0,0,0,0,0,0,0,0,0,0,0,0,0,0,0,0,0,0,0,0,0,0,0,0,0,0,0,0,0,0,0,0,0,0,0,0,0,0,0,0,0,0,0,0,0,0,0,0,0,0,0,0,0,0,0,0,0,0,0,0,0,0,0,0,0,0,0,0,0,0,0,0,0,0,0],"sum_hessian":[5.3952832E4,1.7455316E4,3.6497516E4,6.1805244E3,1.1274791E4,1.9585957E4,1.6911559E4,3.9887366E3,2.1917878E3,7.7304507E3,3.54434E3,6.326203E3,1.3259755E4,6.1059556E3,1.0805603E4,1.1329172E3,2.8558193E3,1.9761257E3,2.1566219E2,8.0785596E2,6.9225947E3,3.2879907E3,2.5634946E2,2.9607593E3,3.365444E3,9.730746E3,3.529009E3,5.732802E3,3.7315387E2,1.194146E3,9.611456E3,1.1209249E3,1.1992327E1,2.6596243E3,1.961951E2,1.2451652E3,7.3096063E2,1.7001651E2,4.5645676E1,7.260994E2,8.1756516E1,2.562888E3,4.359707E3,4.380595E1,3.2441848E3,2.7324026E1,2.2902544E2,1.9763608E3,9.843984E2,3.11097E3,2.5447417E2,8.786657E3,9.440882E2,6.280968E2,2.900912E3,6.691081E1,5.665891E3,1.0672136E2,2.664325E2,9.2591235E2,2.6823364E2,5.6553823E3,3.9560742E3,4.864972E2,6.344277E2,5.687701E0,6.304625E0,2.6453567E3,1.4267508E1,1.8709795E2,9.097152E0,3.7707672E2,8.6808844E2,7.1691394E2,1.4046663E1,1.6404585E2,5.9706573E0,2.7742937E1,1.7902737E1,4.481114E0,7.216183E2,4.5742115E1,3.6014404E1,1.1077832E1,2.55181E3,1.7063165E2,4.189075E3,1.3043943E1,3.0762007E1,8.5783954E2,2.3863452E3,1.7321075E0,2.5591919E1,1.7816092E2,5.0864513E1,2.248136E1,1.9538795E3,5.2948833E0,9.7910345E2,2.8055125E3,3.0545752E2,1.4919171E2,1.0528245E2,2.1555923E3,6.631065E3,5.811354E2,3.629528E2,8.161021E1,5.4648663E2,4.1498254E2,2.4859297E3,1.3184599E0,6.5592354E1,1.9656758E3,3.700215E3,8.767781E1,1.9043552E1,1.8206541E2,8.436708E1,8.9349133E2,3.2421043E1,2.0016365E2,6.8069984E1,2.591455E3,3.0639272E3,1.6255903E3,2.330484E3],"tree_param":{"num_deleted":"0","num_feature":"28","num_nodes":"127","size_leaf_vector":"1"}},{"base_weights":[9.987268E-2,5.2817816E-1,-1.2726921E-1,7.825805E-1,3.8490117E-1,4.1260056E-2,-3.144479E-1,8.8220894E-1,6.7833084E-1,5.0862056E-1,3.0090097E-1,1.9388983E-1,-3.1378154E-2,-1.7941919E-1,-3.9768043E-1,7.120936E-1,9.11146E-1,8.194008E-1,6.466856E-1,7.632882E-1,4.7258666E-1,3.9565048E-1,2.3949237E-1,2.4637924E-1,7.743577E-2,8.770552E-2,-9.324942E-2,-7.377005E-3,-2.2739498E-1,-3.4077793E-1,-5.1032037E-1,7.643377E-1,4.720117E-1,9.4173753E-1,7.8367484E-1,8.253953E-1,-5.640733E-2,9.508152E-1,6.3571554E-1,6.5852463E-1,8.680927E-1,1.9123258E-1,4.9971405E-1,2.5908083E-1,4.3017906E-1,2.5878477E-1,4.5400117E-2,4.3563223E-1,2.234526E-1,1.1303344E-1,-1.5739363E-1,-2.9832015E-2,1.0571969E-1,-1.3073471E-1,1.9738419E-2,1.8416432E-1,-5.0811324E-2,7.976998E-2,-2.3302902E-1,-2.574803E-1,-3.6699018E-1,-3.8734967E-1,-5.2350503E-1,2.5712565E-2,7.940289E-2,6.0275126E-2,1.825886E-2,7.921002E-2,9.623156E-2,8.773196E-2,5.948637E-2,2.9330978E-2,8.425623E-2,9.8381184E-2,-5.0275512E-2,8.974039E-2,6.2315863E-2,6.985819E-2,2.777101E-2,2.173074E-2,8.960759E-2,4.8039043E-3,3.4112614E-2,7.491641E-2,4.8141323E-2,2.2501705E-2,5.0422247E-2,4.6642978E-2,2.7151907E-2,2.9732391E-2,1.6034143E-2,3.2217063E-2,-1.279402E-3,3.3631377E-2,6.9734715E-2,2.79542E-2,1.4642119E-2,-1.1465077E-2,1.3078666E-2,-3.3747073E-2,5.495813E-3,-5.5186893E-3,3.7093546E-2,-3.397677E-3,1.2522863E-2,-8.667536E-3,-2.0473683E-2,2.4117623E-2,-2.847823E-3,5.4128874E-2,1.1951109E-2,8.797085E-3,-1.1476736E-2,-1.1429462E-2,2.8949065E-2,-2.4623713E-2,-1.0587138E-2,-3.2063045E-2,-2.2291427E-2,-3.8468663E-2,-2.1874778E-2,-4.1784007E-2,3.0517703E-4,-5.041063E-2,-5.7843786E-2],"categories":[],"categories_nodes":[],"categories_segments":[],"categories_sizes":[],"default_left":[0,0,0,0,0,0,0,0,0,0,0,0,0,0,0,0,0,0,0,0,0,0,0,0,0,0,0,0,0,0,0,0,0,0,0,0,0,0,0,0,0,0,0,0,0,0,0,0,0,0,0,0,0,0,0,0,0,0,0,0,0,0,0,0,0,0,0,0,0,0,0,0,0,0,0,0,0,0,0,0,0,0,0,0,0,0,0,0,0,0,0,0,0,0,0,0,0,0,0,0,0,0,0,0,0,0,0,0,0,0,0,0,0,0,0,0,0,0,0,0,0,0,0,0,0],"id":4,"left_children":[1,3,5,7,9,11,13,15,17,19,21,23,25,27,29,31,33,35,37,39,41,43,45,47,49,51,53,55,57,59,61,63,65,67,69,71,-1,73,75,77,79,81,83,85,87,89,91,93,95,97,99,101,103,105,107,109,111,113,115,117,119,121,123,-1,-1,-1,-1,-1,-1,-1,-1,-1,-1,-1,-1,-1,-1,-1,-1,-1,-1,-1,-1,-1,-1,-1,-1,-1,-1,-1,-1,-1,-1,-1,-1,-1,-1,-1,-1,-1,-1,-1,-1,-1,-1,-1,-1,-1,-1,-1,-1,-1,-1,-1,-1,-1,-1,-1,-1,-1,-1,-1,-1,-1,-1],"loss_changes":[5.587423E3,7.2516406E2,1.1839058E3,7.3868164E1,1.3218738E2,2.1896733E2,1.9976929E2,1.7381836E1,1.5130249E1,4.688257E1,4.4050232E1,3.8909103E1,9.8607E1,5.598123E1,7.032898E1,6.3753967E0,1.1454834E1,5.7648926E0,8.970581E0,6.4171753E0,3.4347107E1,1.3950653E1,1.7235504E1,1.8947998E1,1.6570244E1,9.692375E0,3.7304306E1,1.2322282E1,9.19693E0,1.5868469E1,5.77948E0,6.4139404E0,3.6207333E0,6.9868164E0,1.0283234E1,5.5681458E0,0E0,5.1901093E0,8.553101E0,4.7249756E0,5.54274E0,8.536018E0,1.842566E1,4.932808E0,1.355481E1,1.5846497E1,6.730958E0,1.2066338E1,1.688379E1,6.967598E0,1.0001751E1,6.2080092E0,1.08189125E1,2.1544792E1,2.3441547E1,6.256937E0,1.0725351E1,3.9512997E0,8.721436E0,3.7557297E0,1.449823E1,4.300152E0,3.2565918E0,0E0,0E0,0E0,0E0,0E0,0E0,0E0,0E0,0E0,0E0,0E0,0E0,0E0,0E0,0E0,0E0,0E0,0E0,0E0,0E0,0E0,0E0,0E0,0E0,0E0,0E0,0E0,0E0,0E0,0E0,0E0,0E0,0E0,0E0,0E0,0E0,0E0,0E0,0E0,0E0,0E0,0E0,0E0,0E0,0E0,0E0,0E0,0E0,0E0,0E0,0E0,0E0,0E0,0E0,0E0,0E0,0E0,0E0,0E0,0E0,0E0,0E0],"parents":[2147483647,0,0,1,1,2,2,3,3,4,4,5,5,6,6,7,7,8,8,9,9,10,10,11,11,12,12,13,13,14,14,15,15,16,16,17,17,18,18,19,19,20,20,21,21,22,22,23,23,24,24,25,25,26,26,27,27,28,28,29,29,30,30,31,31,32,32,33,33,34,34,35,35,37,37,38,38,39,39,40,40,41,41,42,42,43,43,44,44,45,45,46,46,47,47,48,48,49,49,50,50,51,51,52,52,53,53,54,54,55,55,56,56,57,57,58,58,59,59,60,60,61,61,62,62],"right_children":[2,4,6,8,10,12,14,16,18,20,22,24,26,28,30,32,34,36,38,40,42,44,46,48,50,52,54,56,58,60,62,64,66,68,70,72,-1,74,76,78,80,82,84,86,88,90,92,94,96,98,100,102,104,106,108,110,112,114,116,118,120,122,124,-1,-1,-1,-1,-1,-1,-1,-1,-1,-1,-1,-1,-1,-1,-1,-1,-1,-1,-1,-1,-1,-1,-1,-1,-1,-1,-1,-1,-1,-1,-1,-1,-1,-1,-1,-1,-1,-1,-1,-1,-1,-1,-1,-1,-1,-1,-1,-1,-1,-1,-1,-1,-1,-1,-1,-1,-1,-1,-1,-1,-1,-1],"split_conditions":[7.6392535E-5,4.708201E-5,9.7E1,3.96199E-5,6.239272E-5,5.18E1,1.6472032E-4,-2.2853173E-4,3.4585933E-5,4.0949195E-5,3.74E1,1.1423193E-4,1.0450447E-4,1.1192027E-4,2.2005E2,7.708222E-6,4.0681116E-5,7.1414994E-5,-3.7880892E-1,1.9744879E0,-3.016026E-4,-8.2559615E-1,1.6459175E-4,5.521344E-5,1.6161762E-4,-2.6530723E-4,4.884464E0,8.3615785E-5,9.19377E-5,1.7028344E-4,2.3583407E-4,2.0408917E-5,6.400058E-5,-6.3276835E-5,3.12E1,-1.1828021E-4,-5.640733E-2,5.56E1,1.225E1,4.82E1,-2.0033924E-4,5.7069716E-5,1.865E1,5.6229463E0,7.1680086E-5,7.3303156E-5,9.759111E-1,9.3999326E-1,1.0119405E-4,-5.098453E-4,3.9152713E0,1.2028663E-4,-5.8380175E-1,1.4536595E-4,5.9465692E-5,-7.382847E-1,9.7580305E-5,-1.6369124E-1,3.593466E0,1.8098557E-4,4.628974E0,3.1840403E-4,4.3128897E-4,2.5712565E-2,7.940289E-2,6.0275126E-2,1.825886E-2,7.921002E-2,9.623156E-2,8.773196E-2,5.948637E-2,2.9330978E-2,8.425623E-2,9.8381184E-2,-5.0275512E-2,8.974039E-2,6.2315863E-2,6.985819E-2,2.777101E-2,2.173074E-2,8.960759E-2,4.8039043E-3,3.4112614E-2,7.491641E-2,4.8141323E-2,2.2501705E-2,5.0422247E-2,4.6642978E-2,2.7151907E-2,2.9732391E-2,1.6034143E-2,3.2217063E-2,-1.279402E-3,3.3631377E-2,6.9734715E-2,2.79542E-2,1.4642119E-2,-1.1465077E-2,1.3078666E-2,-3.3747073E-2,5.495813E-3,-5.5186893E-3,3.7093546E-2,-3.397677E-3,1.2522863E-2,-8.667536E-3,-2.0473683E-2,2.4117623E-2,-2.847823E-3,5.4128874E-2,1.1951109E-2,8.797085E-3,-1.1476736E-2,-1.1429462E-2,2.8949065E-2,-2.4623713E-2,-1.0587138E-2,-3.2063045E-2,-2.2291427E-2,-3.8468663E-2,-2.1874778E-2,-4.1784007E-2,3.0517703E-4,-5.041063E-2,-5.7843786E-2],"split_indices":[7,7,10,9,9,10,5,8,7,5,10,13,9,9,11,25,3,3,19,19,21,15,13,5,5,20,19,9,7,9,7,5,13,2,10,2,0,11,11,10,4,9,11,19,7,5,12,16,9,21,17,7,23,9,3,18,5,15,17,5,17,9,9,0,0,0,0,0,0,0,0,0,0,0,0,0,0,0,0,0,0,0,0,0,0,0,0,0,0,0,0,0,0,0,0,0,0,0,0,0,0,0,0,0,0,0,0,0,0,0,0,0,0,0,0,0,0,0,0,0,0,0,0,0,0],"split_type":[0,0,0,0,0,0,0,0,0,0,0,0,0,0,0,0,0,0,0,0,0,0,0,0,0,0,0,0,0,0,0,0,0,0,0,0,0,0,0,0,0,0,0,0,0,0,0,0,0,0,0,0,0,0,0,0,0,0,0,0,0,0,0,0,0,0,0,0,0,0,0,0,0,0,0,0,0,0,0,0,0,0,0,0,0,0,0,0,0,0,0,0,0,0,0,0,0,0,0,0,0,0,0,0,0,0,0,0,0,0,0,0,0,0,0,0,0,0,0,0,0,0,0,0,0],"sum_hessian":[5.74312E4,1.9902025E4,3.752917E4,7.1687476E3,1.2733278E4,1.9748807E4,1.7780367E4,3.6618037E3,3.5069438E3,5.1471943E3,7.586084E3,6.367512E3,1.3381294E4,6.781634E3,1.0998734E4,5.360541E2,3.1257498E3,6.379888E2,2.868955E3,6.3551855E2,4.511676E3,2.981059E3,4.605025E3,4.388407E3,1.979105E3,4.5751265E3,8.806167E3,1.4790137E3,5.30262E3,7.3099697E3,3.6887646E3,4.3845782E2,9.7596275E1,2.5156394E3,6.101103E2,6.35638E2,2.3508089E0,9.689854E1,2.7720564E3,3.2146375E2,3.1405478E2,3.974574E2,4.1142183E3,6.0331067E2,2.3777483E3,4.1883755E3,4.166494E2,4.7223538E2,3.916172E3,1.7190358E3,2.6006918E2,6.079251E2,3.9672012E3,6.61229E3,2.1938772E3,2.7279092E2,1.2062228E3,9.5272095E1,5.2073477E3,1.7523031E3,5.5576665E3,3.6014435E2,3.3286204E3,2.4781242E1,4.136766E2,6.648208E1,3.1114191E1,3.0890018E2,2.2067393E3,4.0539825E2,2.0471205E2,2.0432253E1,6.1520575E2,9.506373E1,1.8348074E0,1.236982E2,2.6483582E3,2.901128E2,3.1350965E1,1.3308751E1,3.0074603E2,2.0394702E2,1.9351039E2,2.7847812E2,3.8357405E3,5.3138916E2,7.192151E1,1.933941E3,4.438073E2,3.0085505E3,1.179825E3,7.159734E1,3.4505206E2,3.4398224E2,1.2825314E2,2.2646028E3,1.6515692E3,1.2394812E2,1.5950876E3,1.4041025E2,1.19658936E2,5.725637E2,3.536141E1,4.8604758E2,3.4811536E3,4.1460103E3,2.4662798E3,3.9156946E2,1.8023076E3,4.0685364E1,2.3210556E2,3.8039798E2,8.2582477E2,4.9719383E1,4.555271E1,4.7165E3,4.9084766E2,6.169305E2,1.1353726E3,4.9635483E3,5.941182E2,3.3398944E2,2.6154907E1,2.4674517E3,8.6116864E2],"tree_param":{"num_deleted":"0","num_feature":"28","num_nodes":"125","size_leaf_vector":"1"}},{"base_weights":[-5.3504005E-2,-3.0288604E-1,6.572962E-2,-4.7053537E-1,-2.2704081E-1,-4.768377E-2,1.5255608E-1,-5.231654E-1,-4.0603355E-1,-3.1127658E-1,-1.7746323E-1,-1.301438E-1,3.2910407E-3,7.809708E-2,1.9550636E-1,-4.4171664E-1,-5.4819095E-1,-4.1882202E-1,-4.4241693E-2,4.997199E-1,-3.1622827E-1,-7.599969E-2,-1.9869049E-1,-6.431072E-3,-1.6731621E-1,-7.901442E-2,2.475277E-2,1.5767831E-2,1.09933056E-1,2.5811708E-1,1.593953E-1,-4.781486E-1,-9.398105E-2,3.4638724E-1,-5.5039597E-1,-5.7101345E-1,-3.982692E-1,1.5335876E-1,-6.017393E-1,2.7391267E-1,1.2972508E-1,-4.2410198E-1,-2.8146043E-1,4.0968087E-1,-9.04735E-2,-2.483071E-1,-1.5791963E-1,-5.368622E-1,5.269444E-3,-2.7526376E-1,-1.3150722E-1,-4.404948E-2,-2.1962984E-1,-2.0099811E-2,7.779024E-2,-3.5314597E-2,7.971929E-2,-7.0148245E-2,1.21462576E-1,7.2501785E-1,2.5187773E-1,1.1906123E-1,2.2138321E-1,-1.9118197E-2,-5.1516768E-2,-3.52158E-2,3.2838147E-2,-5.040433E-2,9.282344E-2,-5.694263E-2,-4.330765E-2,-3.0697403E-2,-6.0160633E-2,-4.0624768E-2,2.147781E-2,-5.438921E-2,2.7223965E-2,-6.4210534E-2,3.7827294E-3,7.3751956E-2,-1.801661E-2,-4.441269E-2,-2.157511E-2,-1.3321729E-2,-3.0623903E-2,6.9434345E-2,-2.0957097E-2,-2.6092827E-2,-5.7461443E-3,-2.316033E-2,-4.2818293E-2,-1.1454336E-2,-2.5133392E-2,-6.2899016E-2,4.4969678E-2,4.5806255E-2,-7.3701324E-4,-4.4483583E-2,-2.030111E-2,-6.2295496E-3,-1.6577583E-2,1.0910008E-2,-6.6473233E-3,-2.5595246E-2,1.9293573E-2,-2.906624E-3,2.0839995E-2,1.1249787E-2,-6.706666E-3,2.2110126E-3,-1.8279191E-2,-5.5976883E-3,1.8016268E-2,-2.8704101E-2,2.0840013E-2,1.424872E-2,4.4069467E-3,2.6691798E-2,1.0478079E-1,2.486481E-2,1.0928865E-1,1.8672576E-2,7.747467E-3,2.457788E-2,3.973329E-3],"categories":[],"categories_nodes":[],"categories_segments":[],"categories_sizes":[],"default_left":[0,0,0,0,0,0,0,0,0,0,0,0,0,0,0,0,0,0,0,0,0,0,0,0,0,0,0,0,0,0,0,0,0,0,0,0,0,0,0,0,0,0,0,0,0,0,0,0,0,0,0,0,0,0,0,0,0,0,0,0,0,0,0,0,0,0,0,0,0,0,0,0,0,0,0,0,0,0,0,0,0,0,0,0,0,0,0,0,0,0,0,0,0,0,0,0,0,0,0,0,0,0,0,0,0,0,0,0,0,0,0,0,0,0,0,0,0,0,0,0,0,0,0,0,0],"id":5,"left_children":[1,3,5,7,9,11,13,15,17,19,21,23,25,27,29,31,33,35,37,39,41,43,45,47,49,51,53,55,57,59,61,63,65,67,69,71,73,75,77,79,-1,81,83,85,87,89,91,93,95,97,99,101,103,105,107,109,111,113,115,117,119,121,123,-1,-1,-1,-1,-1,-1,-1,-1,-1,-1,-1,-1,-1,-1,-1,-1,-1,-1,-1,-1,-1,-1,-1,-1,-1,-1,-1,-1,-1,-1,-1,-1,-1,-1,-1,-1,-1,-1,-1,-1,-1,-1,-1,-1,-1,-1,-1,-1,-1,-1,-1,-1,-1,-1,-1,-1,-1,-1,-1,-1,-1,-1],"loss_changes":[1.60387E3,2.2174329E2,3.5935712E2,1.8233398E1,5.0120483E1,6.6515915E1,6.608496E1,5.8498535E0,1.1298279E1,1.8028656E1,1.6279572E1,2.7799057E1,1.727761E1,1.50051E1,2.9593628E1,8.919632E0,4.6922607E0,7.1618347E0,9.414684E0,4.5779037E0,1.6471832E1,9.24993E0,1.261618E1,8.677913E0,1.7932281E1,9.936654E0,1.8456926E1,8.359362E0,1.0401627E1,1.3779755E1,2.0764084E1,6.703171E0,7.5688453E0,3.5481634E0,4.836792E0,2.0670624E0,1.0283203E1,5.393026E0,6.0125256E-1,4.893976E0,0E0,4.3946075E0,1.225882E1,6.8629584E0,7.150879E0,8.374237E0,1.3897293E1,3.0256567E0,7.83606E0,1.4085106E1,8.273018E0,5.575432E0,6.082659E0,8.619645E0,1.7880262E1,1.2053437E1,1.5496713E1,1.8295237E1,7.649315E0,8.987572E0,1.2578827E1,1.4167076E1,1.4510681E1,0E0,0E0,0E0,0E0,0E0,0E0,0E0,0E0,0E0,0E0,0E0,0E0,0E0,0E0,0E0,0E0,0E0,0E0,0E0,0E0,0E0,0E0,0E0,0E0,0E0,0E0,0E0,0E0,0E0,0E0,0E0,0E0,0E0,0E0,0E0,0E0,0E0,0E0,0E0,0E0,0E0,0E0,0E0,0E0,0E0,0E0,0E0,0E0,0E0,0E0,0E0,0E0,0E0,0E0,0E0,0E0,0E0,0E0,0E0,0E0,0E0,0E0],"parents":[2147483647,0,0,1,1,2,2,3,3,4,4,5,5,6,6,7,7,8,8,9,9,10,10,11,11,12,12,13,13,14,14,15,15,16,16,17,17,18,18,19,19,20,20,21,21,22,22,23,23,24,24,25,25,26,26,27,27,28,28,29,29,30,30,31,31,32,32,33,33,34,34,35,35,36,36,37,37,38,38,39,39,41,41,42,42,43,43,44,44,45,45,46,46,47,47,48,48,49,49,50,50,51,51,52,52,53,53,54,54,55,55,56,56,57,57,58,58,59,59,60,60,61,61,62,62],"right_children":[2,4,6,8,10,12,14,16,18,20,22,24,26,28,30,32,34,36,38,40,42,44,46,48,50,52,54,56,58,60,62,64,66,68,70,72,74,76,78,80,-1,82,84,86,88,90,92,94,96,98,100,102,104,106,108,110,112,114,116,118,120,122,124,-1,-1,-1,-1,-1,-1,-1,-1,-1,-1,-1,-1,-1,-1,-1,-1,-1,-1,-1,-1,-1,-1,-1,-1,-1,-1,-1,-1,-1,-1,-1,-1,-1,-1,-1,-1,-1,-1,-1,-1,-1,-1,-1,-1,-1,-1,-1,-1,-1,-1,-1,-1,-1,-1,-1,-1,-1,-1,-1,-1,-1,-1],"split_conditions":[7.944587E-5,4.1546926E-5,8.32E1,2.27E1,5.863183E-5,4.98E1,1.5034001E-4,-1.5716846E-4,7.208771E-5,-3.382207E-4,-1.5280068E-4,-1.2061109E-4,6.0544076E-5,1.1978769E-4,-3.6306682E-4,3.2940218E-1,-8.0109644E-1,2.4657127E-5,4.8738343E-4,2.6829786E0,4.3994547E-5,-1.1977112E-3,6.6579356E-5,5.4737196E-5,2.74E1,2.959899E0,1.13261754E-4,5.7554454E-1,7.735E1,-6.4709044E-1,2.3583407E-4,-1.1243658E0,4.1187013E-5,1.6374235E-5,4.1913852E-5,5.3839904E-1,1.1284119E1,1.8315546E-5,9.04229E0,-4.099227E-4,1.2972508E-1,5.48E1,-2.8404736E-4,1.618222E-1,-1.0667597E0,2.6444852E0,2.4216102E-1,4.34E1,-2.571522E-3,5.6205325E-5,-4.3805853E-6,-6.7167103E-1,2.573222E-4,4.883395E0,7.468034E-1,1.4895412E-4,-3.2869118E-1,6.83527E-5,1.6889519E-4,-1.1627853E-3,1.013657E-3,-7.725231E-2,5.101615E-4,-1.9118197E-2,-5.1516768E-2,-3.52158E-2,3.2838147E-2,-5.040433E-2,9.282344E-2,-5.694263E-2,-4.330765E-2,-3.0697403E-2,-6.0160633E-2,-4.0624768E-2,2.147781E-2,-5.438921E-2,2.7223965E-2,-6.4210534E-2,3.7827294E-3,7.3751956E-2,-1.801661E-2,-4.441269E-2,-2.157511E-2,-1.3321729E-2,-3.0623903E-2,6.9434345E-2,-2.0957097E-2,-2.6092827E-2,-5.7461443E-3,-2.316033E-2,-4.2818293E-2,-1.1454336E-2,-2.5133392E-2,-6.2899016E-2,4.4969678E-2,4.5806255E-2,-7.3701324E-4,-4.4483583E-2,-2.030111E-2,-6.2295496E-3,-1.6577583E-2,1.0910008E-2,-6.6473233E-3,-2.5595246E-2,1.9293573E-2,-2.906624E-3,2.0839995E-2,1.1249787E-2,-6.706666E-3,2.2110126E-3,-1.8279191E-2,-5.5976883E-3,1.8016268E-2,-2.8704101E-2,2.0840013E-2,1.424872E-2,4.4069467E-3,2.6691798E-2,1.0478079E-1,2.486481E-2,1.0928865E-1,1.8672576E-2,7.747467E-3,2.457788E-2,3.973329E-3],"split_indices":[9,5,10,11,9,10,5,8,9,2,20,20,3,9,21,18,19,5,8,15,9,8,7,7,10,17,7,17,11,19,7,18,9,3,7,19,19,3,19,4,0,10,6,16,15,17,18,10,21,5,4,16,2,18,16,20,18,4,7,6,9,16,5,0,0,0,0,0,0,0,0,0,0,0,0,0,0,0,0,0,0,0,0,0,0,0,0,0,0,0,0,0,0,0,0,0,0,0,0,0,0,0,0,0,0,0,0,0,0,0,0,0,0,0,0,0,0,0,0,0,0,0,0,0,0],"split_type":[0,0,0,0,0,0,0,0,0,0,0,0,0,0,0,0,0,0,0,0,0,0,0,0,0,0,0,0,0,0,0,0,0,0,0,0,0,0,0,0,0,0,0,0,0,0,0,0,0,0,0,0,0,0,0,0,0,0,0,0,0,0,0,0,0,0,0,0,0,0,0,0,0,0,0,0,0,0,0,0,0,0,0,0,0,0,0,0,0,0,0,0,0,0,0,0,0,0,0,0,0,0,0,0,0,0,0,0,0,0,0,0,0,0,0,0,0,0,0,0,0,0,0,0,0],"sum_hessian":[5.393763E4,1.7446344E4,3.6491285E4,5.4326763E3,1.2013666E4,1.5823267E4,2.066802E4,2.9877336E3,2.4449429E3,4.449084E3,7.5645825E3,6.0442144E3,9.779052E3,7.561738E3,1.3106281E4,7.066147E2,2.281119E3,2.3613184E3,8.362465E1,2.6393448E1,4.4226904E3,1.3095729E3,6.25501E3,1.3967827E3,4.6474316E3,2.0220054E3,7.757047E3,2.5570256E3,5.0047124E3,4.7918467E3,8.314435E3,6.3926447E2,6.735025E1,5.2250714E0,2.2758938E3,2.7775903E2,2.0835593E3,6.2276257E1,2.1348392E1,2.1616545E1,4.776904E0,1.0752697E3,3.347421E3,3.7107143E1,1.2724657E3,2.8191357E3,3.4358738E3,2.9177263E1,1.3676055E3,1.155985E3,3.4914468E3,1.6203965E3,4.0160883E2,4.2031553E3,3.5538916E3,1.421791E3,1.1352345E3,3.008353E2,4.703877E3,6.1671577E1,4.730175E3,5.0387563E3,3.2756787E3,7.374758E1,5.655169E2,4.1902683E1,2.544757E1,2.1769497E0,3.0481217E0,1.9549313E3,3.2096246E2,2.9986544E1,2.477725E2,2.0571243E3,2.6435043E1,8.550638E0,5.372562E1,2.0077253E1,1.2711388E0,1.0387187E1,1.1229357E1,9.7995306E2,9.531658E1,4.8030048E2,2.8671204E3,2.5338211E1,1.1768931E1,2.0533472E2,1.067131E3,2.581681E3,2.374548E2,2.3478792E3,1.0879948E3,2.701679E1,2.1604717E0,3.618253E1,1.331423E3,3.438458E2,8.121392E2,1.157163E3,2.334284E3,2.06459E2,1.4139375E3,3.6946082E2,3.214803E1,4.045289E3,1.5786612E2,2.867148E3,6.867438E2,1.0239395E3,3.9785156E2,4.830671E2,6.5216736E2,1.6911935E2,1.3171593E2,3.6983435E3,1.00553375E3,2.624785E1,3.542373E1,4.71337E3,1.6804585E1,1.9166807E3,3.1220754E3,2.8875305E3,3.8814825E2],"tree_param":{"num_deleted":"0","num_feature":"28","num_nodes":"125","size_leaf_vector":"1"}},{"base_weights":[-4.867469E-2,-2.7676982E-1,5.8090605E-2,-4.145577E-1,-2.0235574E-1,-1.1210066E-2,1.6309105E-1,-4.5553267E-1,-3.4041402E-1,-2.4069862E-1,-1.3773897E-1,-7.167594E-2,3.4246266E-2,7.094702E-2,2.0347811E-1,-5.2701575E-1,-4.271709E-1,-5.376591E-1,-3.2419828E-1,-4.4325405E-1,-2.2766852E-1,-1.6813916E-1,-5.3183366E-2,-8.369439E-2,1.1594763E-1,-6.410821E-2,5.0598815E-2,5.4137256E-2,2.859384E-1,1.4878458E-1,2.4783416E-1,-5.314037E-1,-1.14150174E-1,-5.9726304E-1,-4.172784E-1,-5.5868083E-1,2.625206E-1,-2.8936794E-1,-4.0402362E-1,1.6861387E-1,-4.706343E-1,-2.626686E-1,-1.6823104E-1,-1.9340713E-1,-9.636544E-2,-6.112332E-2,9.3410736E-1,-1.309717E-1,-5.4586023E-2,2.6951724E-1,1.4632101E-2,-2.534487E-2,-3.2677466E-1,6.583026E-2,-3.476591E-2,9.30486E-2,8.370813E-4,4.8633498E-1,1.9913553E-1,7.41007E-2,2.3505042E-1,3.1516358E-1,1.9339633E-1,-4.7978055E-2,-5.7028778E-2,4.1156117E-2,-5.9736826E-2,-6.325831E-2,-1.0352901E-2,-3.9958406E-2,-5.147651E-2,-4.7274765E-2,-6.892841E-2,-4.049578E-2,6.1855353E-2,-1.9514991E-2,-3.330421E-2,-4.2157274E-2,2.6665283E-2,8.032556E-2,-6.285637E-2,-4.815118E-2,8.878111E-2,-3.304812E-2,-2.1251632E-2,-2.6994163E-2,-1.31618725E-2,6.486966E-3,-2.024206E-2,-1.4749366E-2,9.7154634E-4,-1.1752488E-2,4.9666287E-3,1.1911714E-1,-8.662622E-3,-2.0735612E-2,-7.808484E-3,-1.1639021E-3,-9.887426E-3,1.5281099E-2,5.7258345E-2,-1.6256347E-2,1.2303384E-2,-4.159234E-3,4.435752E-2,-3.612184E-2,9.560901E-2,3.5251814E-3,1.2897101E-2,-1.779112E-2,1.1981823E-3,-3.6598682E-2,1.0022978E-2,1.4377026E-3,-2.6207421E-2,6.2808745E-2,-1.5663415E-2,7.452843E-2,1.4379461E-2,2.238009E-3,2.146603E-2,-2.0760907E-2,2.714163E-2,2.5877818E-2,4.3006003E-2,1.810523E-2,4.470625E-2],"categories":[],"categories_nodes":[],"categories_segments":[],"categories_sizes":[],"default_left":[0,0,0,0,0,0,0,0,0,0,0,0,0,0,0,0,0,0,0,0,0,0,0,0,0,0,0,0,0,0,0,0,0,0,0,0,0,0,0,0,0,0,0,0,0,0,0,0,0,0,0,0,0,0,0,0,0,0,0,0,0,0,0,0,0,0,0,0,0,0,0,0,0,0,0,0,0,0,0,0,0,0,0,0,0,0,0,0,0,0,0,0,0,0,0,0,0,0,0,0,0,0,0,0,0,0,0,0,0,0,0,0,0,0,0,0,0,0,0,0,0,0,0,0,0,0,0],"id":6,"left_children":[1,3,5,7,9,11,13,15,17,19,21,23,25,27,29,31,33,35,37,39,41,43,45,47,49,51,53,55,57,59,61,63,65,67,69,71,73,75,77,79,81,83,85,87,89,91,93,95,97,99,101,103,105,107,109,111,113,115,117,119,121,123,125,-1,-1,-1,-1,-1,-1,-1,-1,-1,-1,-1,-1,-1,-1,-1,-1,-1,-1,-1,-1,-1,-1,-1,-1,-1,-1,-1,-1,-1,-1,-1,-1,-1,-1,-1,-1,-1,-1,-1,-1,-1,-1,-1,-1,-1,-1,-1,-1,-1,-1,-1,-1,-1,-1,-1,-1,-1,-1,-1,-1,-1,-1,-1,-1],"loss_changes":[1.3087832E3,1.7560876E2,2.6638507E2,1.8097168E1,2.7537964E1,6.061918E1,5.415158E1,7.6137695E0,6.678055E0,1.8328491E1,1.0649811E1,2.1352219E1,2.0252728E1,1.6019737E1,2.4512085E1,1.9213867E0,4.417572E0,2.858738E0,5.3941956E0,7.132057E0,1.3608276E1,5.5119324E0,8.664553E0,1.2234623E1,8.86776E0,1.8271135E1,1.4039488E1,8.537464E0,5.4961853E0,2.9193794E1,2.0413727E1,1.8988037E0,3.4921026E0,2.5524254E0,4.3211975E0,1.4409218E0,1.3929874E0,5.6281357E0,7.1698303E0,9.999829E0,6.385544E0,1.397113E1,9.032112E0,5.261505E0,4.318929E0,6.8181925E0,2.4178824E0,1.3674976E1,1.0474258E1,7.927044E0,6.6392727E0,1.19457E1,1.0543112E1,1.7684303E1,1.0945023E1,7.8802147E0,6.191013E0,8.892336E0,6.724906E0,1.7672564E1,3.391651E1,1.605751E1,9.598907E0,0E0,0E0,0E0,0E0,0E0,0E0,0E0,0E0,0E0,0E0,0E0,0E0,0E0,0E0,0E0,0E0,0E0,0E0,0E0,0E0,0E0,0E0,0E0,0E0,0E0,0E0,0E0,0E0,0E0,0E0,0E0,0E0,0E0,0E0,0E0,0E0,0E0,0E0,0E0,0E0,0E0,0E0,0E0,0E0,0E0,0E0,0E0,0E0,0E0,0E0,0E0,0E0,0E0,0E0,0E0,0E0,0E0,0E0,0E0,0E0,0E0,0E0,0E0,0E0],"parents":[2147483647,0,0,1,1,2,2,3,3,4,4,5,5,6,6,7,7,8,8,9,9,10,10,11,11,12,12,13,13,14,14,15,15,16,16,17,17,18,18,19,19,20,20,21,21,22,22,23,23,24,24,25,25,26,26,27,27,28,28,29,29,30,30,31,31,32,32,33,33,34,34,35,35,36,36,37,37,38,38,39,39,40,40,41,41,42,42,43,43,44,44,45,45,46,46,47,47,48,48,49,49,50,50,51,51,52,52,53,53,54,54,55,55,56,56,57,57,58,58,59,59,60,60,61,61,62,62],"right_children":[2,4,6,8,10,12,14,16,18,20,22,24,26,28,30,32,34,36,38,40,42,44,46,48,50,52,54,56,58,60,62,64,66,68,70,72,74,76,78,80,82,84,86,88,90,92,94,96,98,100,102,104,106,108,110,112,114,116,118,120,122,124,126,-1,-1,-1,-1,-1,-1,-1,-1,-1,-1,-1,-1,-1,-1,-1,-1,-1,-1,-1,-1,-1,-1,-1,-1,-1,-1,-1,-1,-1,-1,-1,-1,-1,-1,-1,-1,-1,-1,-1,-1,-1,-1,-1,-1,-1,-1,-1,-1,-1,-1,-1,-1,-1,-1,-1,-1,-1,-1,-1,-1,-1,-1,-1,-1],"split_conditions":[7.4948475E-5,4.6395566E-5,1.094E2,4.3242508E-5,8.3954896E-5,6.5E1,1.6724334E-4,2.8060347E-5,1.12E1,1.775E1,5.485E1,1.7636876E-4,9.508601E-5,5.3414726E-4,-7.135817E-2,3.5551067E-5,8.8E0,2.1618016E-5,3.0503872E-1,-1.90489E0,6.2120045E-5,7.179987E-5,6.599789E-5,4.22E1,3.2937944E0,4.0500007E0,3.5030518E0,1.37E2,-6.6524285E-1,1.9415E2,3.1413755E-1,2.2091794E-5,-9.040038E-6,1.0860699E-4,3.09343E0,6.071064E0,-6.850692E-5,-3.8363117E-1,3.2495632E0,6.0959792E-5,8.1671786E-4,5.863183E-5,3.039942E-1,-6.103143E-4,6.976827E-5,1.3883311E-4,1.4123575E-4,-3.7279384E-5,1.7204402E-2,1.6461057E-4,-1.0947387E-4,3.4114537E0,1.6319411E-4,1.4657406E-4,-5.6724827E-4,-1.283762E-3,1.5031153E1,5.3483945E-1,-6.072314E-1,2.6037073E-4,1.9964937E-4,3.976962E-4,2.661127E-3,-4.7978055E-2,-5.7028778E-2,4.1156117E-2,-5.9736826E-2,-6.325831E-2,-1.0352901E-2,-3.9958406E-2,-5.147651E-2,-4.7274765E-2,-6.892841E-2,-4.049578E-2,6.1855353E-2,-1.9514991E-2,-3.330421E-2,-4.2157274E-2,2.6665283E-2,8.032556E-2,-6.285637E-2,-4.815118E-2,8.878111E-2,-3.304812E-2,-2.1251632E-2,-2.6994163E-2,-1.31618725E-2,6.486966E-3,-2.024206E-2,-1.4749366E-2,9.7154634E-4,-1.1752488E-2,4.9666287E-3,1.1911714E-1,-8.662622E-3,-2.0735612E-2,-7.808484E-3,-1.1639021E-3,-9.887426E-3,1.5281099E-2,5.7258345E-2,-1.6256347E-2,1.2303384E-2,-4.159234E-3,4.435752E-2,-3.612184E-2,9.560901E-2,3.5251814E-3,1.2897101E-2,-1.779112E-2,1.1981823E-3,-3.6598682E-2,1.0022978E-2,1.4377026E-3,-2.6207421E-2,6.2808745E-2,-1.5663415E-2,7.452843E-2,1.4379461E-2,2.238009E-3,2.146603E-2,-2.0760907E-2,2.714163E-2,2.5877818E-2,4.3006003E-2,1.810523E-2,4.470625E-2],"split_indices":[7,7,10,9,13,11,7,7,10,11,11,3,9,2,18,5,10,25,16,18,5,5,25,10,19,19,17,10,15,11,17,5,2,21,17,19,6,18,18,7,8,9,19,6,20,21,3,20,23,9,2,17,5,7,21,4,19,18,14,21,7,21,4,0,0,0,0,0,0,0,0,0,0,0,0,0,0,0,0,0,0,0,0,0,0,0,0,0,0,0,0,0,0,0,0,0,0,0,0,0,0,0,0,0,0,0,0,0,0,0,0,0,0,0,0,0,0,0,0,0,0,0,0,0,0,0,0],"split_type":[0,0,0,0,0,0,0,0,0,0,0,0,0,0,0,0,0,0,0,0,0,0,0,0,0,0,0,0,0,0,0,0,0,0,0,0,0,0,0,0,0,0,0,0,0,0,0,0,0,0,0,0,0,0,0,0,0,0,0,0,0,0,0,0,0,0,0,0,0,0,0,0,0,0,0,0,0,0,0,0,0,0,0,0,0,0,0,0,0,0,0,0,0,0,0,0,0,0,0,0,0,0,0,0,0,0,0,0,0,0,0,0,0,0,0,0,0,0,0,0,0,0,0,0,0,0,0],"sum_hessian":[5.3741305E4,1.7134113E4,3.660719E4,6.006914E3,1.1127199E4,2.2053018E4,1.4554176E4,3.8655195E3,2.1413945E3,6.981644E3,4.1455557E3,9.463766E3,1.2589251E4,4.436029E3,1.0118147E4,1.0930383E3,2.7724812E3,1.6023003E2,1.9811646E3,4.1997885E2,6.561665E3,3.0485317E3,1.0970239E3,8.894568E3,5.6919794E2,1.7942981E3,1.0794953E4,4.1154976E3,3.2053107E2,4.5330234E3,5.5851235E3,1.0812594E3,1.1778837E1,1.4912033E2,2.6233608E3,1.5642242E2,3.8076026E0,1.3825424E3,5.9862213E2,1.7767578E1,4.0221127E2,4.1276543E3,2.4340107E3,2.2534934E3,7.950382E2,1.0892025E3,7.8214555E0,3.3881284E3,5.50644E3,2.2559332E2,3.4360464E2,1.56451E3,2.2978806E2,9.160664E3,1.634289E3,2.378412E3,1.7370856E3,9.5485855E1,2.250452E2,2.430607E3,2.1024167E3,2.49477E3,3.0903533E3,4.7026498E2,6.1099445E2,5.712395E0,6.0664415E0,1.3890248E2,1.0217838E1,2.2246702E3,3.986907E2,9.713202E1,5.9290394E1,1.2766905E0,2.5309122E0,4.396201E2,9.429223E2,5.837198E2,1.4902366E1,9.888005E0,7.879572E0,3.9965662E2,2.5546362E0,1.7524791E3,2.3751753E3,6.425648E2,1.7914459E3,7.578241E1,2.1777112E3,5.36209E2,2.588292E2,7.217222E2,3.6748022E2,6.114571E0,1.7068841E0,1.3849403E3,2.0031882E3,2.7961914E3,2.7102483E3,1.6395927E2,6.1634045E1,1.3022943E2,2.133752E2,1.5129979E3,5.15121E1,2.2447942E2,5.3086386E0,6.1727974E3,2.9878665E3,4.0163745E2,1.2326515E3,3.5865303E1,2.3425469E3,1.6529061E3,8.4179436E1,7.825622E1,1.7229641E1,1.9558544E1,2.0548666E2,1.7776559E3,6.529509E2,1.5925038E2,1.9431664E3,1.6756819E3,8.190882E2,2.9485815E3,1.417717E2],"tree_param":{"num_deleted":"0","num_feature":"28","num_nodes":"127","size_leaf_vector":"1"}},{"base_weights":[9.154709E-2,4.7529632E-1,-1.2042456E-1,6.744061E-1,3.2707906E-1,3.3074155E-2,-2.9908535E-1,7.8759843E-1,5.778751E-1,4.2013454E-1,2.5717968E-1,1.36328E-1,-6.1625566E-2,-2.0588817E-1,-4.0992188E-1,8.245591E-1,6.8341297E-1,6.587397E-1,5.1574254E-1,2.3228844E-1,4.6284202E-1,3.456391E-1,2.0511177E-1,2.0471683E-1,6.0916238E-2,5.885598E-2,-1.0584416E-1,-1.6407331E-2,-2.3976417E-1,-3.0266303E-1,-4.6802047E-1,3.4133506E-1,8.300536E-1,6.916489E-1,-5.971833E-1,8.352181E-1,6.218273E-1,-5.951778E-1,5.2091116E-1,1.9628227E-1,4.7598913E-1,7.867308E-1,4.4081184E-1,2.2248778E-1,3.7798804E-1,2.3317452E-1,7.958887E-2,3.0519846E-1,1.5183161E-1,8.831115E-2,-1.6653936E-1,-3.841559E-2,9.1665104E-2,-1.3455826E-1,9.534848E-3,9.642359E-2,-8.691511E-2,-1.9957735E-1,-2.765375E-1,-3.3543876E-1,-7.601292E-2,-4.1880754E-1,-4.990369E-1,9.813635E-2,9.110209E-3,7.787615E-2,8.7835714E-2,5.1503576E-2,7.533507E-2,-7.055314E-2,-9.543088E-3,5.5933684E-2,8.951261E-2,5.894142E-2,7.978486E-2,3.5841618E-2,-7.4426405E-2,5.5271953E-2,3.7615445E-2,1.6839307E-2,5.4867752E-2,-2.327889E-2,5.4881375E-2,8.082052E-2,-1.3189531E-2,6.392803E-2,4.1644376E-2,1.10784546E-1,2.1054031E-2,4.1861422E-2,2.1846106E-2,2.2161229E-2,7.174785E-2,-3.2922424E-2,1.0362497E-2,1.2465351E-2,3.551945E-2,1.5110101E-3,1.7507596E-2,2.5120385E-3,1.5529402E-2,-1.1455848E-2,-4.415445E-2,-1.6783441E-4,-2.194774E-2,2.7447676E-2,6.9799223E-3,-1.0420578E-2,-2.3401415E-2,2.6650188E-2,-2.4470014E-3,1.644506E-2,-1.840499E-2,8.058194E-2,-9.645738E-3,-1.5394454E-2,-2.5395498E-2,-2.7941471E-2,2.1933867E-2,-3.0280367E-2,-4.126489E-2,-6.1351447E-3,-5.8568824E-2,-3.8143296E-2,-4.7112923E-2,7.036378E-2,-5.0066408E-2],"categories":[],"categories_nodes":[],"categories_segments":[],"categories_sizes":[],"default_left":[0,0,0,0,0,0,0,0,0,0,0,0,0,0,0,0,0,0,0,0,0,0,0,0,0,0,0,0,0,0,0,0,0,0,0,0,0,0,0,0,0,0,0,0,0,0,0,0,0,0,0,0,0,0,0,0,0,0,0,0,0,0,0,0,0,0,0,0,0,0,0,0,0,0,0,0,0,0,0,0,0,0,0,0,0,0,0,0,0,0,0,0,0,0,0,0,0,0,0,0,0,0,0,0,0,0,0,0,0,0,0,0,0,0,0,0,0,0,0,0,0,0,0,0,0,0,0],"id":7,"left_children":[1,3,5,7,9,11,13,15,17,19,21,23,25,27,29,31,33,35,37,39,41,43,45,47,49,51,53,55,57,59,61,63,65,67,69,71,73,75,77,79,81,83,85,87,89,91,93,95,97,99,101,103,105,107,109,111,113,115,117,119,121,123,125,-1,-1,-1,-1,-1,-1,-1,-1,-1,-1,-1,-1,-1,-1,-1,-1,-1,-1,-1,-1,-1,-1,-1,-1,-1,-1,-1,-1,-1,-1,-1,-1,-1,-1,-1,-1,-1,-1,-1,-1,-1,-1,-1,-1,-1,-1,-1,-1,-1,-1,-1,-1,-1,-1,-1,-1,-1,-1,-1,-1,-1,-1,-1,-1],"loss_changes":[4.679821E3,6.039087E2,1.0163678E3,9.498584E1,7.6236694E1,1.949344E2,1.7682825E2,1.4907471E1,2.3365356E1,4.027008E1,3.0812103E1,4.9173218E1,5.5406506E1,5.9727844E1,4.8601807E1,7.577881E0,1.1570801E1,1.2811462E1,1.5656433E1,8.105064E0,2.890625E1,9.8072815E0,1.4857727E1,2.6528885E1,2.8285751E1,8.91558E0,2.5204475E1,1.1245017E1,1.1610931E1,2.0411423E1,7.532715E0,5.5137577E0,6.5672607E0,1.1071777E1,3.2936168E-1,5.301758E0,9.208008E0,2.0927572E0,1.2043884E1,7.924881E0,6.2996864E0,5.232086E0,1.830957E1,5.2561207E0,1.2643341E1,1.9165543E1,7.631494E0,1.5512878E1,1.041642E1,1.7138588E1,6.92616E0,4.6893516E0,8.329237E0,1.8364113E1,1.3261263E1,1.0403307E1,7.4871016E0,9.329803E0,5.9388733E0,5.9306335E0,2.5709996E0,3.6667786E0,6.430237E0,0E0,0E0,0E0,0E0,0E0,0E0,0E0,0E0,0E0,0E0,0E0,0E0,0E0,0E0,0E0,0E0,0E0,0E0,0E0,0E0,0E0,0E0,0E0,0E0,0E0,0E0,0E0,0E0,0E0,0E0,0E0,0E0,0E0,0E0,0E0,0E0,0E0,0E0,0E0,0E0,0E0,0E0,0E0,0E0,0E0,0E0,0E0,0E0,0E0,0E0,0E0,0E0,0E0,0E0,0E0,0E0,0E0,0E0,0E0,0E0,0E0,0E0,0E0,0E0],"parents":[2147483647,0,0,1,1,2,2,3,3,4,4,5,5,6,6,7,7,8,8,9,9,10,10,11,11,12,12,13,13,14,14,15,15,16,16,17,17,18,18,19,19,20,20,21,21,22,22,23,23,24,24,25,25,26,26,27,27,28,28,29,29,30,30,31,31,32,32,33,33,34,34,35,35,36,36,37,37,38,38,39,39,40,40,41,41,42,42,43,43,44,44,45,45,46,46,47,47,48,48,49,49,50,50,51,51,52,52,53,53,54,54,55,55,56,56,57,57,58,58,59,59,60,60,61,61,62,62],"right_children":[2,4,6,8,10,12,14,16,18,20,22,24,26,28,30,32,34,36,38,40,42,44,46,48,50,52,54,56,58,60,62,64,66,68,70,72,74,76,78,80,82,84,86,88,90,92,94,96,98,100,102,104,106,108,110,112,114,116,118,120,122,124,126,-1,-1,-1,-1,-1,-1,-1,-1,-1,-1,-1,-1,-1,-1,-1,-1,-1,-1,-1,-1,-1,-1,-1,-1,-1,-1,-1,-1,-1,-1,-1,-1,-1,-1,-1,-1,-1,-1,-1,-1,-1,-1,-1,-1,-1,-1,-1,-1,-1,-1,-1,-1,-1,-1,-1,-1,-1,-1,-1,-1,-1,-1,-1,-1],"split_conditions":[7.6963486E-5,5.07616E-5,9.84E1,4.0370753E-5,6.525528E-5,6.24E1,2.019531E-4,2.7E1,3.9729817E-5,-1.2349407E-4,3.74E1,1.0119405E-4,1.0278865E-4,1.1192027E-4,1.716E2,-2.745056E-4,7.15E1,1.38E1,-3.8391013E0,3.4782607E-2,3.6915146E-5,-8.2559615E-1,8.9312605E-5,3.9E1,2.0916223E-4,-2.7136918E-4,2.6444852E0,9.390986E-5,1.5552655E-4,1.1980877E1,2.3295E2,-4.1017E-1,5.5678165E-1,-8.5416024E-5,1.0333186E-5,-1.4186284E-4,2.8935575E0,-9.3116844E-4,9.187292E-5,4.6311206E-1,-5.894324E-1,2.9353643E-4,2.225E1,1.62E1,7.2230156E-5,5.150186E0,-2.661857E-4,8.025379E-5,-3.3017088E-4,3.2937944E0,3.1200965E-4,1.9495164E-4,-6.950198E-4,1.5161822E-4,7.233642E-5,4.1114623E-4,7.2E-1,1.9718349E-4,2.6243617E-4,2.4944224E-4,8.589067E-1,2.7131525E-4,1.1086471E-4,9.813635E-2,9.110209E-3,7.787615E-2,8.7835714E-2,5.1503576E-2,7.533507E-2,-7.055314E-2,-9.543088E-3,5.5933684E-2,8.951261E-2,5.894142E-2,7.978486E-2,3.5841618E-2,-7.4426405E-2,5.5271953E-2,3.7615445E-2,1.6839307E-2,5.4867752E-2,-2.327889E-2,5.4881375E-2,8.082052E-2,-1.3189531E-2,6.392803E-2,4.1644376E-2,1.10784546E-1,2.1054031E-2,4.1861422E-2,2.1846106E-2,2.2161229E-2,7.174785E-2,-3.2922424E-2,1.0362497E-2,1.2465351E-2,3.551945E-2,1.5110101E-3,1.7507596E-2,2.5120385E-3,1.5529402E-2,-1.1455848E-2,-4.415445E-2,-1.6783441E-4,-2.194774E-2,2.7447676E-2,6.9799223E-3,-1.0420578E-2,-2.3401415E-2,2.6650188E-2,-2.4470014E-3,1.644506E-2,-1.840499E-2,8.058194E-2,-9.645738E-3,-1.5394454E-2,-2.5395498E-2,-2.7941471E-2,2.1933867E-2,-3.0280367E-2,-4.126489E-2,-6.1351447E-3,-5.8568824E-2,-3.8143296E-2,-4.7112923E-2,7.036378E-2,-5.0066408E-2],"split_indices":[7,7,10,9,9,10,7,10,5,20,10,9,9,9,10,21,11,10,18,22,5,15,3,10,13,4,17,9,7,17,11,17,15,21,25,6,17,21,13,18,17,21,11,11,7,17,2,7,21,19,7,13,8,5,13,8,12,13,5,9,23,9,5,0,0,0,0,0,0,0,0,0,0,0,0,0,0,0,0,0,0,0,0,0,0,0,0,0,0,0,0,0,0,0,0,0,0,0,0,0,0,0,0,0,0,0,0,0,0,0,0,0,0,0,0,0,0,0,0,0,0,0,0,0,0,0,0],"split_type":[0,0,0,0,0,0,0,0,0,0,0,0,0,0,0,0,0,0,0,0,0,0,0,0,0,0,0,0,0,0,0,0,0,0,0,0,0,0,0,0,0,0,0,0,0,0,0,0,0,0,0,0,0,0,0,0,0,0,0,0,0,0,0,0,0,0,0,0,0,0,0,0,0,0,0,0,0,0,0,0,0,0,0,0,0,0,0,0,0,0,0,0,0,0,0,0,0,0,0,0,0,0,0,0,0,0,0,0,0,0,0,0,0,0,0,0,0,0,0,0,0,0,0,0,0,0,0],"sum_hessian":[5.7529566E4,2.0469945E4,3.705962E4,8.733765E3,1.173618E4,1.9933936E4,1.7125684E4,4.0166658E3,4.717099E3,5.0320776E3,6.704102E3,9.536058E3,1.0397878E4,9.304679E3,7.821005E3,2.959754E3,1.0569119E3,2.045417E3,2.6716824E3,9.333294E2,4.098748E3,2.4819006E3,4.222201E3,4.99999E3,4.536068E3,2.7915273E3,7.606351E3,1.4114438E3,7.8932354E3,2.7501035E3,5.0709014E3,3.3985607E1,2.9257683E3,1.0506149E3,6.296961E0,3.500756E2,1.6953413E3,1.1843995E1,2.6598384E3,8.1475653E2,1.1857283E2,2.5882227E2,3.8399258E3,5.179521E2,1.9639486E3,3.4500315E3,7.721699E2,1.7224927E3,3.2774976E3,4.0490134E3,4.8705435E2,7.040396E2,2.0874878E3,6.0904653E3,1.5158856E3,5.42667E2,8.6877686E2,3.774641E3,4.118594E3,2.4022375E3,3.4786597E2,1.9660033E3,3.1048982E3,8.731357E0,2.5254251E1,1.4272898E3,1.4984785E3,2.7443332E2,7.761815E2,4.8446712E0,1.4522893E0,6.430104E1,2.8577454E2,1.4353752E3,2.599661E2,1.4115117E0,1.0432484E1,2.178355E3,4.8148337E2,7.563736E2,5.838295E1,1.0843181E1,1.0772965E2,2.5302754E2,5.794724E0,4.1715204E2,3.422774E3,5.6751304E0,5.12277E2,1.564021E3,3.9992767E2,3.3710098E3,7.902172E1,4.2173496E1,7.299964E2,3.7430432E2,1.3481884E3,4.7648666E2,2.8010107E3,2.0841904E3,1.9648231E3,4.1081882E2,7.623553E1,5.8612476E2,1.1791481E2,2.2177396E2,1.8657137E3,4.667929E3,1.4225363E3,1.763572E2,1.3395284E3,4.3707178E2,1.055952E2,8.305456E0,8.604714E2,2.0544292E3,1.720212E3,4.0952688E3,2.3325302E1,1.6919907E3,7.1024664E2,3.3922803E2,8.637961E0,1.1516462E3,8.14357E2,3.6120665E0,3.1012861E3],"tree_param":{"num_deleted":"0","num_feature":"28","num_nodes":"127","size_leaf_vector":"1"}},{"base_weights":[-4.934206E-2,-2.8485626E-1,6.0836658E-2,-4.4729704E-1,-2.1260257E-1,-4.5987967E-2,1.3871339E-1,-4.9947998E-1,-3.838134E-1,-2.929362E-1,-1.6572955E-1,-1.3016683E-1,-3.7056522E-3,7.03681E-2,1.7900796E-1,-4.1933095E-1,-5.242959E-1,-3.9634827E-1,-3.6386658E-2,2.6099426E-1,-2.9967332E-1,-6.607666E-2,-1.8562192E-1,-1.0294538E-2,-1.6535299E-1,-7.369129E-2,2.0466452E-2,6.61128E-3,9.892481E-2,2.1880314E-1,1.3080963E-1,-4.5700887E-1,-9.046583E-2,3.4788257E-1,-5.265244E-1,-2.0019622E-1,-4.120262E-1,1.5159059E-1,-5.828606E-1,5.554645E-2,1.1559447E0,-4.047017E-1,-2.6599762E-1,-2.0777358E-1,-1.7852878E-2,-1.0571659E-1,-2.07838E-1,-4.5794446E-2,2.3041825E-1,-2.7928135E-1,-1.3174376E-1,-9.6688464E-2,7.003021E-2,1.1841467E-1,-4.4942528E-4,-1.12246815E-2,2.5483918E-1,1.0922855E-1,-6.2658444E-2,1.7425156E-1,2.5638872E-1,1.0501603E-1,2.4411418E-1,-5.2568056E-2,-2.962858E-2,6.751131E-2,-2.1920664E-2,9.05416E-2,-4.9165696E-2,-5.4548986E-2,-4.1076154E-2,-2.491343E-2,1.5274321E-2,-3.4582086E-2,-4.528433E-2,7.255025E-2,1.4501634E-3,-6.2380046E-2,4.721359E-3,2.8911307E-2,-3.2920647E-2,1.3204525E-1,3.175328E-3,-5.0818868E-2,-3.6347408E-2,-2.1628117E-2,-3.3626836E-2,3.759436E-2,-2.4395568E-2,-1.5812775E-2,7.6062414E-3,6.457012E-2,-1.1321223E-2,-3.3445206E-2,-1.9247426E-2,-5.4645836E-2,-3.1218228E-3,1.0924192E-1,1.5980368E-2,7.3861845E-2,-2.9102877E-2,-1.9195914E-2,-5.2700764E-3,-4.653423E-3,-1.57596E-2,1.0047404E-5,3.0694274E-2,-7.6784673E-3,1.7133866E-2,-4.700902E-3,4.3878844E-3,1.9700002E-2,-2.7606122E-3,7.3971145E-2,1.1463565E-2,7.725138E-2,1.047616E-2,-5.507628E-2,-1.4770449E-4,2.1152575E-2,5.8186394E-3,1.9893069E-2,3.0482156E-2,3.9172914E-2,9.367511E-3,2.7902257E-3,2.9961402E-2],"categories":[],"categories_nodes":[],"categories_segments":[],"categories_sizes":[],"default_left":[0,0,0,0,0,0,0,0,0,0,0,0,0,0,0,0,0,0,0,0,0,0,0,0,0,0,0,0,0,0,0,0,0,0,0,0,0,0,0,0,0,0,0,0,0,0,0,0,0,0,0,0,0,0,0,0,0,0,0,0,0,0,0,0,0,0,0,0,0,0,0,0,0,0,0,0,0,0,0,0,0,0,0,0,0,0,0,0,0,0,0,0,0,0,0,0,0,0,0,0,0,0,0,0,0,0,0,0,0,0,0,0,0,0,0,0,0,0,0,0,0,0,0,0,0,0,0],"id":8,"left_children":[1,3,5,7,9,11,13,15,17,19,21,23,25,27,29,31,33,35,37,39,41,43,45,47,49,51,53,55,57,59,61,63,65,67,69,71,73,75,77,79,81,83,85,87,89,91,93,95,97,99,101,103,105,107,109,111,113,115,117,119,121,123,125,-1,-1,-1,-1,-1,-1,-1,-1,-1,-1,-1,-1,-1,-1,-1,-1,-1,-1,-1,-1,-1,-1,-1,-1,-1,-1,-1,-1,-1,-1,-1,-1,-1,-1,-1,-1,-1,-1,-1,-1,-1,-1,-1,-1,-1,-1,-1,-1,-1,-1,-1,-1,-1,-1,-1,-1,-1,-1,-1,-1,-1,-1,-1,-1],"loss_changes":[1.3940894E3,2.008778E2,3.0450537E2,1.7268799E1,4.4585266E1,5.4931767E1,5.8287445E1,5.5272827E0,1.0359802E1,1.637326E1,1.4831421E1,2.1763138E1,1.738265E1,1.4298046E1,2.5514496E1,8.485245E0,4.463745E0,6.987915E0,8.722883E0,9.681134E0,1.51521E1,8.521048E0,1.1057739E1,1.00258255E1,1.5237846E1,8.725342E0,1.5646833E1,1.0763623E1,9.037273E0,1.2167358E1,1.7583176E1,6.655792E0,7.242572E0,3.3542457E0,4.5997314E0,3.0107136E0,5.5939636E0,4.972517E0,5.897145E-1,4.06339E0,1.7788372E0,4.2762604E0,1.1350906E1,6.7800293E0,1.2288534E1,7.7321596E0,9.433594E0,7.44292E0,9.00452E0,1.1070656E1,1.4660477E1,6.9404373E0,6.0377994E0,1.3897001E1,1.299349E1,7.7434306E0,1.0994326E1,1.5027287E1,9.727766E0,1.44388275E1,1.0941681E1,1.5927528E1,1.3389603E1,0E0,0E0,0E0,0E0,0E0,0E0,0E0,0E0,0E0,0E0,0E0,0E0,0E0,0E0,0E0,0E0,0E0,0E0,0E0,0E0,0E0,0E0,0E0,0E0,0E0,0E0,0E0,0E0,0E0,0E0,0E0,0E0,0E0,0E0,0E0,0E0,0E0,0E0,0E0,0E0,0E0,0E0,0E0,0E0,0E0,0E0,0E0,0E0,0E0,0E0,0E0,0E0,0E0,0E0,0E0,0E0,0E0,0E0,0E0,0E0,0E0,0E0,0E0,0E0],"parents":[2147483647,0,0,1,1,2,2,3,3,4,4,5,5,6,6,7,7,8,8,9,9,10,10,11,11,12,12,13,13,14,14,15,15,16,16,17,17,18,18,19,19,20,20,21,21,22,22,23,23,24,24,25,25,26,26,27,27,28,28,29,29,30,30,31,31,32,32,33,33,34,34,35,35,36,36,37,37,38,38,39,39,40,40,41,41,42,42,43,43,44,44,45,45,46,46,47,47,48,48,49,49,50,50,51,51,52,52,53,53,54,54,55,55,56,56,57,57,58,58,59,59,60,60,61,61,62,62],"right_children":[2,4,6,8,10,12,14,16,18,20,22,24,26,28,30,32,34,36,38,40,42,44,46,48,50,52,54,56,58,60,62,64,66,68,70,72,74,76,78,80,82,84,86,88,90,92,94,96,98,100,102,104,106,108,110,112,114,116,118,120,122,124,126,-1,-1,-1,-1,-1,-1,-1,-1,-1,-1,-1,-1,-1,-1,-1,-1,-1,-1,-1,-1,-1,-1,-1,-1,-1,-1,-1,-1,-1,-1,-1,-1,-1,-1,-1,-1,-1,-1,-1,-1,-1,-1,-1,-1,-1,-1,-1,-1,-1,-1,-1,-1,-1,-1,-1,-1,-1,-1,-1,-1,-1,-1,-1,-1],"split_conditions":[7.944587E-5,4.1546926E-5,8.2E1,2.27E1,5.863183E-5,4.68E1,1.5034001E-4,-1.5716846E-4,7.208771E-5,-3.0223565E-4,-4.7814267E-4,-1.2061109E-4,6.479269E-5,1.11828864E-4,7.793385E-5,2.9119208E-1,-8.0109644E-1,-4.561161E-4,4.8738343E-4,3.2524383E0,4.3994547E-5,-7.1618515E-1,-9.657037E-5,1.3202136E-4,3.065E1,1.477138E-4,-3.978915E-4,8.719761E-1,2.1395246E-4,6.563415E-1,2.519E2,2.2578003E0,-2.2112479E-4,1.995E1,4.1913852E-5,4.52E1,-1.6850053E-1,-1.6594947E-4,2.895297E-4,-2.9092448E-4,-1.5250902E0,2.09E1,4.5016594E-5,2.54E1,4.11E1,-2.2943504E0,2.26E1,5.4737196E-5,-2.4625885E-3,-9.7121054E-5,1.0278865E-4,1.1012719E-4,3.9556962E-5,-9.447176E-1,1.1370442E-4,-1.2190557E0,-5.994181E-5,-5.49346E0,8.25E1,4.2697704E-1,-4.672443E-1,-9.6063447E-1,-2.5118428E-1,-5.2568056E-2,-2.962858E-2,6.751131E-2,-2.1920664E-2,9.05416E-2,-4.9165696E-2,-5.4548986E-2,-4.1076154E-2,-2.491343E-2,1.5274321E-2,-3.4582086E-2,-4.528433E-2,7.255025E-2,1.4501634E-3,-6.2380046E-2,4.721359E-3,2.8911307E-2,-3.2920647E-2,1.3204525E-1,3.175328E-3,-5.0818868E-2,-3.6347408E-2,-2.1628117E-2,-3.3626836E-2,3.759436E-2,-2.4395568E-2,-1.5812775E-2,7.6062414E-3,6.457012E-2,-1.1321223E-2,-3.3445206E-2,-1.9247426E-2,-5.4645836E-2,-3.1218228E-3,1.0924192E-1,1.5980368E-2,7.3861845E-2,-2.9102877E-2,-1.9195914E-2,-5.2700764E-3,-4.653423E-3,-1.57596E-2,1.0047404E-5,3.0694274E-2,-7.6784673E-3,1.7133866E-2,-4.700902E-3,4.3878844E-3,1.9700002E-2,-2.7606122E-3,7.3971145E-2,1.1463565E-2,7.725138E-2,1.047616E-2,-5.507628E-2,-1.4770449E-4,2.1152575E-2,5.8186394E-3,1.9893069E-2,3.0482156E-2,3.9172914E-2,9.367511E-3,2.7902257E-3,2.9961402E-2],"split_indices":[9,5,10,11,9,10,5,8,9,2,8,20,3,7,21,18,19,8,8,15,9,15,2,3,11,13,21,16,7,19,11,19,4,11,7,11,18,21,4,6,14,11,21,10,11,16,10,7,8,25,9,9,25,14,9,14,2,18,11,23,18,18,16,0,0,0,0,0,0,0,0,0,0,0,0,0,0,0,0,0,0,0,0,0,0,0,0,0,0,0,0,0,0,0,0,0,0,0,0,0,0,0,0,0,0,0,0,0,0,0,0,0,0,0,0,0,0,0,0,0,0,0,0,0,0,0,0],"split_type":[0,0,0,0,0,0,0,0,0,0,0,0,0,0,0,0,0,0,0,0,0,0,0,0,0,0,0,0,0,0,0,0,0,0,0,0,0,0,0,0,0,0,0,0,0,0,0,0,0,0,0,0,0,0,0,0,0,0,0,0,0,0,0,0,0,0,0,0,0,0,0,0,0,0,0,0,0,0,0,0,0,0,0,0,0,0,0,0,0,0,0,0,0,0,0,0,0,0,0,0,0,0,0,0,0,0,0,0,0,0,0,0,0,0,0,0,0,0,0,0,0,0,0,0,0,0,0],"sum_hessian":[5.3723258E4,1.712209E4,3.6601168E4,5.269656E3,1.1852434E4,1.5432542E4,2.1168629E4,2.8884827E3,2.3811729E3,4.365442E3,7.4869917E3,5.159178E3,1.0273363E4,7.8524717E3,1.3316156E4,6.871299E2,2.2013528E3,2.298118E3,8.305505E1,5.2002525E1,4.3134395E3,1.2465569E3,6.240435E3,1.1710238E3,3.988154E3,2.6368442E3,7.6365195E3,2.4295015E3,5.42297E3,7.2919683E3,6.024188E3,6.1614844E2,7.098146E1,5.2150593E0,2.1961377E3,1.7110687E2,2.127011E3,6.23354E1,2.0719658E1,4.3157265E1,8.845259E0,1.0445765E3,3.268863E3,3.1567984E2,9.30877E2,1.3588336E3,4.881601E3,1.0212251E3,1.4979875E2,9.068409E2,3.0813132E3,2.2734001E3,3.6344418E2,1.3429371E3,6.2935825E3,2.267527E3,1.6197423E2,5.098196E3,3.2477472E2,3.3393496E3,3.9526184E3,4.908665E3,1.115523E3,4.3010715E2,1.8604129E2,9.607121E0,6.1374336E1,3.0867193E0,2.12834E0,1.8838025E3,3.1233527E2,1.5052887E2,2.0578003E1,8.1482996E2,1.312181E3,1.119138E1,5.114402E1,1.9464859E1,1.2547982E0,2.7009537E1,1.614773E1,7.563831E0,1.2814282E0,2.9436206E2,7.502144E2,1.9168046E3,1.3520583E3,1.7877424E1,2.9780243E2,3.730275E2,5.5784955E2,1.2579971E1,1.3462537E3,5.2600244E2,4.3555986E3,2.7858309E1,9.9336676E2,1.0246635E1,1.3955212E2,9.640373E0,8.972005E2,1.7481414E3,1.333172E3,1.2477257E3,1.0256743E3,2.813872E2,8.205696E1,2.863484E2,1.0565887E3,3.0695068E3,3.2240754E3,1.6457582E2,2.1029514E3,3.537147E1,1.2660276E2,3.2954346E1,5.065241E3,3.528326E1,2.8949146E2,2.5269883E3,8.123615E2,1.8102018E3,2.1424167E3,1.854979E2,4.723167E3,2.2816368E2,8.873593E2],"tree_param":{"num_deleted":"0","num_feature":"28","num_nodes":"127","size_leaf_vector":"1"}},{"base_weights":[-4.4735488E-2,-2.5952908E-1,5.3691387E-2,-3.927921E-1,-1.8872154E-1,-1.030915E-2,1.4983775E-1,-4.330108E-1,-3.207073E-1,-2.2549802E-1,-1.2709868E-1,-8.629842E-2,2.1357203E-2,6.535244E-2,1.866493E-1,-5.0465417E-1,-4.047867E-1,-3.3613876E-1,-1.2227355E-1,-4.225416E-1,-2.1299346E-1,-1.5623711E-1,-4.6489045E-2,-1.13190465E-1,2.8762347E-3,4.834508E-2,-6.009779E-2,4.956116E-2,2.6582873E-1,1.3544525E-1,2.2804786E-1,-5.111058E-1,-2.1645969E-1,-3.9348176E-1,-5.573525E-1,-2.894857E-1,-4.166974E-1,1.02777325E-1,-1.4203021E-1,1.7105037E-1,-4.4978234E-1,-2.4654412E-1,-1.5634711E-1,3.505408E-2,-1.6526885E-1,-5.412976E-2,8.752088E-1,-1.7968108E-1,-7.089768E-2,3.302476E-1,-2.0457512E-2,1.8655794E-2,1.19772755E-1,-1.8705659E-1,-3.5543766E-2,4.522139E-2,4.8866034E-1,9.288018E-2,3.6021018E-1,6.652901E-2,2.145339E-1,2.905078E-1,1.7735568E-1,-5.1570576E-2,-9.743973E-3,-3.8339302E-2,8.079011E-2,-3.811214E-2,-5.3771406E-2,-5.8232155E-2,5.261771E-2,-1.8004663E-2,-3.3725653E-2,-4.2912822E-2,1.8283622E-2,3.2187592E-2,-1.8234177E-2,7.6169066E-2,-6.1104562E-2,-4.606846E-2,8.448243E-2,-3.1205693E-2,-1.9844955E-2,-2.5564788E-2,-1.207777E-2,7.083599E-2,-4.828637E-3,-1.75909E-2,7.133674E-4,-1.2251341E-2,3.0014876E-3,1.10742055E-1,-8.173362E-3,-2.3669224E-2,-5.7714363E-3,-3.881647E-3,-1.9673236E-2,1.4900163E-2,9.133159E-2,-7.10755E-3,1.1520584E-2,-5.480463E-3,3.4916762E-3,7.164749E-3,1.8787952E-2,1.0694735E-2,-2.310404E-2,-4.829906E-3,2.1304075E-2,8.257203E-3,-6.642625E-4,7.367608E-2,-3.6002908E-2,3.8729128E-3,9.4720684E-2,4.717115E-2,4.1673967E-4,1.3214721E-2,-3.9202883E-3,-2.1962086E-2,2.4709813E-2,2.3852171E-2,3.958576E-2,1.6477197E-2,3.979556E-2],"categories":[],"categories_nodes":[],"categories_segments":[],"categories_sizes":[],"default_left":[0,0,0,0,0,0,0,0,0,0,0,0,0,0,0,0,0,0,0,0,0,0,0,0,0,0,0,0,0,0,0,0,0,0,0,0,0,0,0,0,0,0,0,0,0,0,0,0,0,0,0,0,0,0,0,0,0,0,0,0,0,0,0,0,0,0,0,0,0,0,0,0,0,0,0,0,0,0,0,0,0,0,0,0,0,0,0,0,0,0,0,0,0,0,0,0,0,0,0,0,0,0,0,0,0,0,0,0,0,0,0,0,0,0,0,0,0,0,0,0,0,0,0,0,0],"id":9,"left_children":[1,3,5,7,9,11,13,15,17,19,21,23,25,27,29,31,33,35,37,39,41,43,45,47,49,51,53,55,57,59,61,63,65,67,69,71,73,-1,75,77,79,81,83,85,87,89,91,93,95,97,99,101,103,105,107,109,111,113,115,117,119,121,123,-1,-1,-1,-1,-1,-1,-1,-1,-1,-1,-1,-1,-1,-1,-1,-1,-1,-1,-1,-1,-1,-1,-1,-1,-1,-1,-1,-1,-1,-1,-1,-1,-1,-1,-1,-1,-1,-1,-1,-1,-1,-1,-1,-1,-1,-1,-1,-1,-1,-1,-1,-1,-1,-1,-1,-1,-1,-1,-1,-1,-1,-1],"loss_changes":[1.1314907E3,1.5862256E2,2.258453E2,1.6776428E1,2.4865417E1,5.3026108E1,4.5604492E1,7.362732E0,6.3690186E0,1.6856628E1,9.641182E0,1.5544376E1,3.419681E1,1.4083723E1,2.1624084E1,1.8482056E0,4.4196777E0,7.1770477E0,3.6136305E0,6.6970673E0,1.2256744E1,5.2177505E0,7.73802E0,1.39915695E1,1.1486238E1,2.4775743E1,1.2062191E1,7.8460712E0,5.27009E0,2.4891449E1,1.7828918E1,1.9092102E0,4.5511026E0,4.2653503E0,5.261471E0,6.3849335E0,5.3686066E0,0E0,2.8810012E0,9.098367E0,5.918022E0,1.2734299E1,8.478489E0,7.71257E0,5.285881E0,6.2411833E0,2.0985827E0,1.3444744E1,1.2287104E1,1.0436487E1,9.647689E0,9.862534E0,1.12304E1,8.13501E0,1.0300474E1,7.9229E0,8.7522955E0,5.3324504E0,8.329006E0,1.6955965E1,3.012909E1,1.3752914E1,8.594986E0,0E0,0E0,0E0,0E0,0E0,0E0,0E0,0E0,0E0,0E0,0E0,0E0,0E0,0E0,0E0,0E0,0E0,0E0,0E0,0E0,0E0,0E0,0E0,0E0,0E0,0E0,0E0,0E0,0E0,0E0,0E0,0E0,0E0,0E0,0E0,0E0,0E0,0E0,0E0,0E0,0E0,0E0,0E0,0E0,0E0,0E0,0E0,0E0,0E0,0E0,0E0,0E0,0E0,0E0,0E0,0E0,0E0,0E0,0E0,0E0,0E0,0E0],"parents":[2147483647,0,0,1,1,2,2,3,3,4,4,5,5,6,6,7,7,8,8,9,9,10,10,11,11,12,12,13,13,14,14,15,15,16,16,17,17,18,18,19,19,20,20,21,21,22,22,23,23,24,24,25,25,26,26,27,27,28,28,29,29,30,30,31,31,32,32,33,33,34,34,35,35,36,36,38,38,39,39,40,40,41,41,42,42,43,43,44,44,45,45,46,46,47,47,48,48,49,49,50,50,51,51,52,52,53,53,54,54,55,55,56,56,57,57,58,58,59,59,60,60,61,61,62,62],"right_children":[2,4,6,8,10,12,14,16,18,20,22,24,26,28,30,32,34,36,38,40,42,44,46,48,50,52,54,56,58,60,62,64,66,68,70,72,74,-1,76,78,80,82,84,86,88,90,92,94,96,98,100,102,104,106,108,110,112,114,116,118,120,122,124,-1,-1,-1,-1,-1,-1,-1,-1,-1,-1,-1,-1,-1,-1,-1,-1,-1,-1,-1,-1,-1,-1,-1,-1,-1,-1,-1,-1,-1,-1,-1,-1,-1,-1,-1,-1,-1,-1,-1,-1,-1,-1,-1,-1,-1,-1,-1,-1,-1,-1,-1,-1,-1,-1,-1,-1,-1,-1,-1,-1,-1,-1],"split_conditions":[7.4948475E-5,4.6395566E-5,1.094E2,4.3242508E-5,8.3954896E-5,9.508601E-5,1.6724334E-4,2.8060347E-5,4.059481E-1,1.775E1,5.485E1,4.005414E-4,4.7284546E0,5.3414726E-4,-7.135817E-2,4.1187013E-5,5.0703435E0,1.810627E-1,-8.386578E-1,-1.90489E0,6.2120045E-5,-4.5116784E-4,6.599789E-5,4.85E1,-8.362229E-1,1.4657406E-4,7.3822914E-5,1.2153246E-3,1.1238447E0,1.9415E2,3.1413755E-1,3.5551067E-5,1.0687304E0,3.5181448E0,9.217775E-5,-4.4085622E-1,3.2495632E0,1.02777325E-1,-1.1797712E-1,6.0959792E-5,8.1671786E-4,5.863183E-5,3.039942E-1,3.7009602E-5,5.165027E-4,5.1411316E-5,1.4123575E-4,9.009838E-5,2.4491742E0,7.545629E-4,1.1143233E0,7.96748E-1,1.7857911E-4,3.19E1,5.384835E0,1.37E2,1.7308086E-4,3.0293045E0,3.0258691E0,1.1036168E0,1.9249812E-4,3.976962E-4,1.642477E-3,-5.1570576E-2,-9.743973E-3,-3.8339302E-2,8.079011E-2,-3.811214E-2,-5.3771406E-2,-5.8232155E-2,5.261771E-2,-1.8004663E-2,-3.3725653E-2,-4.2912822E-2,1.8283622E-2,3.2187592E-2,-1.8234177E-2,7.6169066E-2,-6.1104562E-2,-4.606846E-2,8.448243E-2,-3.1205693E-2,-1.9844955E-2,-2.5564788E-2,-1.207777E-2,7.083599E-2,-4.828637E-3,-1.75909E-2,7.133674E-4,-1.2251341E-2,3.0014876E-3,1.10742055E-1,-8.173362E-3,-2.3669224E-2,-5.7714363E-3,-3.881647E-3,-1.9673236E-2,1.4900163E-2,9.133159E-2,-7.10755E-3,1.1520584E-2,-5.480463E-3,3.4916762E-3,7.164749E-3,1.8787952E-2,1.0694735E-2,-2.310404E-2,-4.829906E-3,2.1304075E-2,8.257203E-3,-6.642625E-4,7.367608E-2,-3.6002908E-2,3.8729128E-3,9.4720684E-2,4.717115E-2,4.1673967E-4,1.3214721E-2,-3.9202883E-3,-2.1962086E-2,2.4709813E-2,2.3852171E-2,3.958576E-2,1.6477197E-2,3.979556E-2],"split_indices":[7,7,10,9,13,9,7,7,27,11,11,8,19,2,18,9,19,16,17,18,5,4,25,11,16,7,5,4,12,11,17,5,18,15,3,18,18,0,19,7,8,9,19,3,6,21,3,3,19,8,12,12,9,11,16,10,9,17,19,17,9,21,20,0,0,0,0,0,0,0,0,0,0,0,0,0,0,0,0,0,0,0,0,0,0,0,0,0,0,0,0,0,0,0,0,0,0,0,0,0,0,0,0,0,0,0,0,0,0,0,0,0,0,0,0,0,0,0,0,0,0,0,0,0,0],"split_type":[0,0,0,0,0,0,0,0,0,0,0,0,0,0,0,0,0,0,0,0,0,0,0,0,0,0,0,0,0,0,0,0,0,0,0,0,0,0,0,0,0,0,0,0,0,0,0,0,0,0,0,0,0,0,0,0,0,0,0,0,0,0,0,0,0,0,0,0,0,0,0,0,0,0,0,0,0,0,0,0,0,0,0,0,0,0,0,0,0,0,0,0,0,0,0,0,0,0,0,0,0,0,0,0,0,0,0,0,0,0,0,0,0,0,0,0,0,0,0,0,0,0,0,0,0],"sum_hessian":[5.3518324E4,1.6817164E4,3.670116E4,5.833572E3,1.0983593E4,2.2034574E4,1.4666585E4,3.7412104E3,2.092361E3,6.876839E3,4.1067534E3,6.48085E3,1.5553724E4,4.451903E3,1.0214683E4,1.0525531E3,2.6886572E3,1.9407428E3,1.5161836E2,4.0841144E2,6.4684277E3,3.0157092E3,1.0910442E3,4.9790645E3,1.501786E3,1.1683217E4,3.8705068E3,4.1279927E3,3.239098E2,4.568447E3,5.6462354E3,1.0287499E3,2.3803274E1,2.506507E3,1.8215019E2,1.2319124E3,7.088305E2,1.698966E0,1.4991939E2,1.7688549E1,3.907229E2,4.0602551E3,2.4081724E3,1.3583607E2,2.879873E3,1.0830074E3,8.036673E0,1.9344965E3,3.0445679E3,9.90444E1,1.4027416E3,8.25376E3,3.4294573E3,6.2617816E2,3.2443286E3,4.0886858E3,3.9306946E1,1.1505757E2,2.0885223E2,2.4422024E3,2.1262446E3,2.527396E3,3.1188396E3,1.01719196E3,1.1557937E1,2.100582E1,2.7974553E0,2.3120154E3,1.944918E2,1.7849939E2,3.6507967E0,3.7578607E2,8.561263E2,6.947105E2,1.411998E1,1.1427443E1,1.3849194E2,1.0092651E1,7.595898E0,3.8809875E2,2.6241388E0,1.716546E3,2.3437092E3,6.334774E2,1.774695E3,1.4135564E1,1.21700516E2,2.712449E3,1.6742422E2,5.972066E2,4.8580084E2,6.340771E0,1.6959012E0,1.317646E3,6.168505E2,2.427095E3,6.1747284E2,7.651528E1,2.2529123E1,1.02192316E3,3.8081845E2,1.4954692E3,6.75829E3,2.0107108E3,1.4187465E3,8.130101E1,5.448772E2,3.086748E3,1.5758058E2,2.376571E3,1.7121149E3,3.051753E1,8.789416E0,1.0918243E2,5.8751388E0,1.5879713E2,5.00551E1,1.5068113E3,9.35391E2,1.4795303E2,1.9782916E3,1.6944929E3,8.32903E2,2.9521848E3,1.6665475E2],"tree_param":{"num_deleted":"0","num_feature":"28","num_nodes":"125","size_leaf_vector":"1"}},{"base_weights":[8.381717E-2,4.3235722E-1,-1.1235118E-1,6.1163753E-1,2.9837635E-1,3.0470863E-2,-2.8131852E-1,7.1437955E-1,5.240378E-1,3.8502812E-1,2.3472254E-1,1.1947327E-1,-6.3318565E-2,-1.9594729E-1,-3.9290264E-1,7.8005964E-1,6.6449463E-1,5.9684473E-1,4.6802646E-1,4.59309E-1,3.080016E-1,2.9267523E-1,1.6523743E-1,1.6761959E-1,2.6845787E-2,7.6366444E-3,-1.3257039E-1,-1.3890809E-2,-2.2743236E-1,-2.867731E-1,-4.4710365E-1,1.6353564E-1,7.846602E-1,7.0578384E-1,5.6753117E-1,7.573371E-1,5.6324637E-1,-5.8018136E-1,4.727917E-1,6.7112184E-1,4.267503E-1,4.2362604E-1,2.720122E-1,1.9837448E-1,3.4914666E-1,2.2333024E-1,9.3556866E-2,2.5861886E-1,1.1822433E-1,7.2237566E-2,-8.8516854E-2,5.8760617E-2,-4.161549E-2,-1.5921769E-1,5.4164346E-2,9.132469E-2,-8.009126E-2,-1.869432E-1,-2.6174662E-1,-3.310663E-1,-1.16726674E-1,-4.0030402E-1,-4.7579968E-1,-3.2766543E-2,8.167524E-2,6.723486E-2,8.1067495E-2,7.082485E-2,-6.481971E-2,3.6437914E-2,6.2337287E-2,-5.954611E-2,7.665389E-2,5.459568E-2,8.527183E-2,-7.277157E-2,3.4690525E-2,5.019025E-2,3.399345E-2,7.654319E-2,3.6701046E-2,6.1151695E-2,3.989537E-2,-5.117351E-4,4.44229E-2,2.4669688E-2,4.057213E-2,3.1980143E-3,2.2842258E-2,7.774332E-2,3.3787843E-2,3.0123865E-2,1.2355557E-2,2.602622E-2,7.2064186E-3,2.9080963E-2,4.140432E-3,3.052317E-2,1.054282E-2,1.4108702E-2,2.6918922E-3,-2.4211595E-3,-2.3116408E-2,3.755054E-3,3.6261447E-2,-3.2648586E-2,-3.2486566E-3,-1.51112145E-2,-3.89895E-2,1.26806395E-2,-1.4279038E-2,1.5555817E-2,-1.7603885E-2,7.573439E-2,-8.9249285E-3,-1.4319956E-2,-2.3926737E-2,-2.5409538E-2,-4.1394427E-2,-2.9427985E-2,-4.0678736E-2,-1.8297018E-2,1.2073627E-3,-3.6412776E-2,-4.4804983E-2,6.698257E-2,-4.7743365E-2],"categories":[],"categories_nodes":[],"categories_segments":[],"categories_sizes":[],"default_left":[0,0,0,0,0,0,0,0,0,0,0,0,0,0,0,0,0,0,0,0,0,0,0,0,0,0,0,0,0,0,0,0,0,0,0,0,0,0,0,0,0,0,0,0,0,0,0,0,0,0,0,0,0,0,0,0,0,0,0,0,0,0,0,0,0,0,0,0,0,0,0,0,0,0,0,0,0,0,0,0,0,0,0,0,0,0,0,0,0,0,0,0,0,0,0,0,0,0,0,0,0,0,0,0,0,0,0,0,0,0,0,0,0,0,0,0,0,0,0,0,0,0,0,0,0,0,0],"id":10,"left_children":[1,3,5,7,9,11,13,15,17,19,21,23,25,27,29,31,33,35,37,39,41,43,45,47,49,51,53,55,57,59,61,63,65,67,69,71,73,75,77,79,81,83,85,87,89,91,93,95,97,99,101,103,105,107,109,111,113,115,117,119,121,123,125,-1,-1,-1,-1,-1,-1,-1,-1,-1,-1,-1,-1,-1,-1,-1,-1,-1,-1,-1,-1,-1,-1,-1,-1,-1,-1,-1,-1,-1,-1,-1,-1,-1,-1,-1,-1,-1,-1,-1,-1,-1,-1,-1,-1,-1,-1,-1,-1,-1,-1,-1,-1,-1,-1,-1,-1,-1,-1,-1,-1,-1,-1,-1,-1],"loss_changes":[3.9337463E3,4.9751294E2,8.8842224E2,7.937573E1,6.532617E1,1.6655351E2,1.6056836E2,1.283374E1,1.9240845E1,2.8587341E1,2.7494995E1,4.5651E1,4.773943E1,5.4772766E1,4.1913574E1,4.8449707E0,8.89917E0,1.0776672E1,1.381073E1,1.7327515E1,1.0154907E1,1.9784271E1,1.2941063E1,3.0246841E1,1.834733E1,1.2087517E1,2.4473907E1,9.828639E0,1.1270172E1,1.8591843E1,6.3043213E0,4.839989E0,4.5391846E0,5.881836E0,7.700638E0,4.897339E0,8.152283E0,1.9913211E0,1.0265198E1,9.428787E0,1.1139893E1,5.1614685E0,6.2803802E0,6.985901E0,1.0984161E1,1.3322136E1,4.9799786E0,1.6553192E1,1.0419937E1,7.840493E0,9.07053E0,1.5166591E1,6.348042E0,7.9865723E0,8.813379E0,9.387373E0,6.709277E0,8.527756E0,5.0270996E0,5.345001E0,4.3766704E0,3.0228271E0,5.921875E0,0E0,0E0,0E0,0E0,0E0,0E0,0E0,0E0,0E0,0E0,0E0,0E0,0E0,0E0,0E0,0E0,0E0,0E0,0E0,0E0,0E0,0E0,0E0,0E0,0E0,0E0,0E0,0E0,0E0,0E0,0E0,0E0,0E0,0E0,0E0,0E0,0E0,0E0,0E0,0E0,0E0,0E0,0E0,0E0,0E0,0E0,0E0,0E0,0E0,0E0,0E0,0E0,0E0,0E0,0E0,0E0,0E0,0E0,0E0,0E0,0E0,0E0,0E0,0E0],"parents":[2147483647,0,0,1,1,2,2,3,3,4,4,5,5,6,6,7,7,8,8,9,9,10,10,11,11,12,12,13,13,14,14,15,15,16,16,17,17,18,18,19,19,20,20,21,21,22,22,23,23,24,24,25,25,26,26,27,27,28,28,29,29,30,30,31,31,32,32,33,33,34,34,35,35,36,36,37,37,38,38,39,39,40,40,41,41,42,42,43,43,44,44,45,45,46,46,47,47,48,48,49,49,50,50,51,51,52,52,53,53,54,54,55,55,56,56,57,57,58,58,59,59,60,60,61,61,62,62],"right_children":[2,4,6,8,10,12,14,16,18,20,22,24,26,28,30,32,34,36,38,40,42,44,46,48,50,52,54,56,58,60,62,64,66,68,70,72,74,76,78,80,82,84,86,88,90,92,94,96,98,100,102,104,106,108,110,112,114,116,118,120,122,124,126,-1,-1,-1,-1,-1,-1,-1,-1,-1,-1,-1,-1,-1,-1,-1,-1,-1,-1,-1,-1,-1,-1,-1,-1,-1,-1,-1,-1,-1,-1,-1,-1,-1,-1,-1,-1,-1,-1,-1,-1,-1,-1,-1,-1,-1,-1,-1,-1,-1,-1,-1,-1,-1,-1,-1,-1,-1,-1,-1,-1,-1,-1,-1,-1],"split_conditions":[7.6963486E-5,5.07616E-5,9.84E1,4.0370753E-5,6.400058E-5,6.46E1,2.0674916E-4,2.7477183E-5,3.9729817E-5,6.525528E-5,4.72E1,1.1979469E-4,1.2719272E-4,1.1192027E-4,1.716E2,-5.317599E-4,3.765357E-5,1.38E1,-3.8391013E0,4.0949195E-5,2.54E1,-1.4916873E-4,6.969775E-5,3.9E1,1.3213842E-4,1.0240765E-4,9.807847E0,9.390986E-5,1.5552655E-4,5.638304E0,2.3295E2,-5.9196614E-2,2.6959556E-1,3.9552824E-4,5.5098844E-1,-2.451754E-4,4.779541E0,5.8605907E-5,9.187292E-5,5.9618345E-5,2.225E1,-1.3549347E0,2.0085266E0,-4.92434E-4,1.56E1,7.415629E-5,-5.351561E-1,1.8887455E-4,5.8109927E-5,5.01E1,2.1819574E-4,5.434227E0,-2.4112467E-4,2.3932462E-4,5.6711357E1,4.1114623E-4,7.2E-1,1.9718349E-4,4.9480237E-4,2.4944224E-4,4.3415165E1,2.7131525E-4,1.1086471E-4,-3.2766543E-2,8.167524E-2,6.723486E-2,8.1067495E-2,7.082485E-2,-6.481971E-2,3.6437914E-2,6.2337287E-2,-5.954611E-2,7.665389E-2,5.459568E-2,8.527183E-2,-7.277157E-2,3.4690525E-2,5.019025E-2,3.399345E-2,7.654319E-2,3.6701046E-2,6.1151695E-2,3.989537E-2,-5.117351E-4,4.44229E-2,2.4669688E-2,4.057213E-2,3.1980143E-3,2.2842258E-2,7.774332E-2,3.3787843E-2,3.0123865E-2,1.2355557E-2,2.602622E-2,7.2064186E-3,2.9080963E-2,4.140432E-3,3.052317E-2,1.054282E-2,1.4108702E-2,2.6918922E-3,-2.4211595E-3,-2.3116408E-2,3.755054E-3,3.6261447E-2,-3.2648586E-2,-3.2486566E-3,-1.51112145E-2,-3.89895E-2,1.26806395E-2,-1.4279038E-2,1.5555817E-2,-1.7603885E-2,7.573439E-2,-8.9249285E-3,-1.4319956E-2,-2.3926737E-2,-2.5409538E-2,-4.1394427E-2,-2.9427985E-2,-4.0678736E-2,-1.8297018E-2,1.2073627E-3,-3.6412776E-2,-4.4804983E-2,6.698257E-2,-4.7743365E-2],"split_indices":[7,7,10,9,13,10,7,13,5,9,10,13,9,9,10,8,7,10,18,5,10,8,5,10,9,5,17,9,7,17,11,16,17,6,19,21,17,5,13,7,11,15,17,6,11,9,17,9,5,11,13,19,24,7,19,8,12,13,13,9,19,9,5,0,0,0,0,0,0,0,0,0,0,0,0,0,0,0,0,0,0,0,0,0,0,0,0,0,0,0,0,0,0,0,0,0,0,0,0,0,0,0,0,0,0,0,0,0,0,0,0,0,0,0,0,0,0,0,0,0,0,0,0,0,0,0,0],"split_type":[0,0,0,0,0,0,0,0,0,0,0,0,0,0,0,0,0,0,0,0,0,0,0,0,0,0,0,0,0,0,0,0,0,0,0,0,0,0,0,0,0,0,0,0,0,0,0,0,0,0,0,0,0,0,0,0,0,0,0,0,0,0,0,0,0,0,0,0,0,0,0,0,0,0,0,0,0,0,0,0,0,0,0,0,0,0,0,0,0,0,0,0,0,0,0,0,0,0,0,0,0,0,0,0,0,0,0,0,0,0,0,0,0,0,0,0,0,0,0,0,0,0,0,0,0,0,0],"sum_hessian":[5.753231E4,2.0718941E4,3.6813367E4,8.859904E3,1.1859038E4,1.9950633E4,1.6862736E4,4.074243E3,4.785661E3,5.020116E3,6.8389224E3,1.0236413E4,9.714219E3,9.555065E3,7.30767E3,1.752374E3,2.321869E3,2.07665E3,2.7090112E3,2.5530796E3,2.4670366E3,3.727152E3,3.11177E3,6.7349053E3,3.5015076E3,4.7985396E3,4.9156797E3,1.4090336E3,8.1460317E3,2.4725417E3,4.8351284E3,1.3250319E1,1.7391237E3,1.6240386E3,6.9783044E2,3.5575272E2,1.7208972E3,1.1713191E1,2.697298E3,3.3754495E2,2.2155344E3,5.83057E2,1.8839795E3,1.3976882E3,2.3294639E3,1.7176233E3,1.3941469E3,2.368063E3,4.3668423E3,2.5130647E3,9.8844275E2,2.3544329E3,2.4441067E3,4.301935E3,6.1374475E2,5.44019E2,8.650146E2,3.7397532E3,4.406279E3,1.9608405E3,5.1170117E2,1.8435231E3,2.9916052E3,7.847554E0,5.402764E0,3.321212E2,1.4070024E3,1.6215638E3,2.474739E0,1.5208188E2,5.4574854E2,1.9730408E0,3.5377966E2,1.6266282E3,9.4269035E1,1.0290618E1,1.4225725E0,2.2102295E3,4.8706866E2,2.564871E2,8.105788E1,2.8697635E2,1.9285581E3,2.676817E1,5.562888E2,1.5864579E3,2.9752158E2,2.1410806E2,1.1835802E3,5.797405E1,2.27149E3,9.6336597E2,7.5425726E2,1.5794635E2,1.2362004E3,2.0621216E3,3.0594135E2,2.782046E2,4.0886377E3,9.9671405E2,1.5163507E3,6.821154E2,3.0632733E2,2.201859E3,1.52574E2,7.481213E1,2.3692944E3,4.1575034E3,1.4443134E2,4.4863327E2,1.651115E2,4.3897452E2,1.05044464E2,8.4735365E0,8.56541E2,2.0389244E3,1.7008287E3,4.197912E3,2.0836647E2,1.3229952E3,6.378453E2,3.3763232E2,1.7406885E2,1.0537435E3,7.8977954E2,3.6783822E0,2.9879268E3],"tree_param":{"num_deleted":"0","num_feature":"28","num_nodes":"127","size_leaf_vector":"1"}},{"base_weights":[-4.5386642E-2,-2.6764187E-1,5.637356E-2,-4.2516616E-1,-1.9884214E-1,-4.054524E-2,1.2909782E-1,-4.4458327E-1,-2.5656056E-1,-2.7537563E-1,-1.545894E-1,-1.21546E-1,-1.4493644E-3,6.6045515E-2,1.65102E-1,-3.7323332E-1,-4.758921E-1,-2.7498555E-1,3.9509493E-1,-2.2469936E-1,-3.4600592E-1,-6.196003E-2,-1.7418341E-1,-8.388785E-3,-1.5501557E-1,4.2072E-2,-3.4892615E-2,1.2486924E-2,9.316937E-2,2.1870546E-1,1.3397697E-1,-3.8745257E-1,1.6932097E-1,-5.09532E-1,-4.099803E-1,9.304561E-2,-2.82635E-1,8.7933E-1,-1.2831724E-1,4.577542E-1,-2.3232901E-1,-5.017043E-1,-3.250213E-1,3.876381E-1,-7.568336E-2,-2.2046287E-1,-1.364723E-1,-2.489713E-2,4.8382995E-1,-3.1440237E-1,-1.3169965E-1,4.8875537E-2,-4.405387E-1,2.0989975E-2,-6.826692E-2,2.8372458E-1,1.2865091E-3,1.4293262E-1,5.8740538E-2,6.5031445E-1,2.1289001E-1,9.77453E-2,1.8937917E-1,-2.0869693E-2,-4.0534597E-2,4.156621E-2,-6.1919935E-2,3.4992438E-2,-5.1183145E-2,-4.1723024E-2,2.4995698E-2,-3.6593746E-2,-1.577655E-2,2.0543853E-2,1.2494259E-1,4.7295306E-2,-4.2164065E-2,-2.0780543E-2,6.522638E-2,-4.109861E-2,-2.0430943E-2,-5.6778397E-2,3.23224E-2,1.3140841E-2,-3.328214E-2,6.499874E-2,-1.9991072E-2,-1.0589431E-2,9.781274E-3,-2.0428551E-2,-3.9679736E-2,-9.45575E-3,-2.2730717E-2,-5.2682478E-2,-1.2180144E-3,7.551265E-2,-4.399053E-2,-3.504772E-2,3.1866785E-2,-1.47966435E-2,6.330824E-3,9.4195595E-3,5.595047E-4,2.1254577E-2,-5.0069015E-2,-5.0004814E-3,1.040364E-2,-1.0831456E-2,-1.2612268E-3,3.9271206E-2,-4.553264E-2,1.116064E-2,-2.9850511E-3,1.1755877E-2,3.733857E-2,-1.6324377E-2,7.3883715E-3,2.3289086E-2,9.388354E-2,2.0989591E-2,9.776168E-2,1.5257536E-2,5.5191596E-3,2.1168182E-2,2.2085551E-3],"categories":[],"categories_nodes":[],"categories_segments":[],"categories_sizes":[],"default_left":[0,0,0,0,0,0,0,0,0,0,0,0,0,0,0,0,0,0,0,0,0,0,0,0,0,0,0,0,0,0,0,0,0,0,0,0,0,0,0,0,0,0,0,0,0,0,0,0,0,0,0,0,0,0,0,0,0,0,0,0,0,0,0,0,0,0,0,0,0,0,0,0,0,0,0,0,0,0,0,0,0,0,0,0,0,0,0,0,0,0,0,0,0,0,0,0,0,0,0,0,0,0,0,0,0,0,0,0,0,0,0,0,0,0,0,0,0,0,0,0,0,0,0,0,0],"id":11,"left_children":[1,3,5,7,9,11,13,15,17,19,21,23,25,27,29,31,33,35,37,39,41,43,45,47,49,51,53,55,57,59,61,63,65,67,69,-1,71,73,75,77,79,81,83,85,87,89,91,93,95,97,99,101,103,105,107,109,111,113,115,117,119,121,123,-1,-1,-1,-1,-1,-1,-1,-1,-1,-1,-1,-1,-1,-1,-1,-1,-1,-1,-1,-1,-1,-1,-1,-1,-1,-1,-1,-1,-1,-1,-1,-1,-1,-1,-1,-1,-1,-1,-1,-1,-1,-1,-1,-1,-1,-1,-1,-1,-1,-1,-1,-1,-1,-1,-1,-1,-1,-1,-1,-1,-1,-1],"loss_changes":[1.209951E3,1.820044E2,2.5865726E2,1.6604004E1,3.956949E1,4.982086E1,4.758383E1,1.0048828E1,6.4688835E0,1.5255157E1,1.3443939E1,1.939524E1,1.5447017E1,1.1071476E1,2.2234772E1,1.0872299E1,6.8377075E0,5.018669E0,3.9085593E0,1.3108345E1,5.677902E0,8.024883E0,1.0647842E1,9.519908E0,1.4646477E1,1.5163558E1,1.1194063E1,7.7875743E0,8.659988E0,1.2161804E1,1.6933197E1,4.282425E0,7.341525E0,4.3294067E0,5.2669373E0,0E0,5.28117E0,1.7152257E0,1.6226083E0,3.7532E0,1.2281265E1,1.1657398E1,5.662506E0,6.0716205E0,6.605874E0,7.750641E0,1.2823845E1,7.226017E0,9.859949E0,1.1614319E1,1.0952263E1,8.921044E0,2.6287518E0,1.3239754E1,8.37361E0,8.366873E0,8.463388E0,1.2050407E1,1.0070497E1,7.569235E0,1.0869598E1,1.1909504E1,1.244986E1,0E0,0E0,0E0,0E0,0E0,0E0,0E0,0E0,0E0,0E0,0E0,0E0,0E0,0E0,0E0,0E0,0E0,0E0,0E0,0E0,0E0,0E0,0E0,0E0,0E0,0E0,0E0,0E0,0E0,0E0,0E0,0E0,0E0,0E0,0E0,0E0,0E0,0E0,0E0,0E0,0E0,0E0,0E0,0E0,0E0,0E0,0E0,0E0,0E0,0E0,0E0,0E0,0E0,0E0,0E0,0E0,0E0,0E0,0E0,0E0,0E0,0E0],"parents":[2147483647,0,0,1,1,2,2,3,3,4,4,5,5,6,6,7,7,8,8,9,9,10,10,11,11,12,12,13,13,14,14,15,15,16,16,17,17,18,18,19,19,20,20,21,21,22,22,23,23,24,24,25,25,26,26,27,27,28,28,29,29,30,30,31,31,32,32,33,33,34,34,36,36,37,37,38,38,39,39,40,40,41,41,42,42,43,43,44,44,45,45,46,46,47,47,48,48,49,49,50,50,51,51,52,52,53,53,54,54,55,55,56,56,57,57,58,58,59,59,60,60,61,61,62,62],"right_children":[2,4,6,8,10,12,14,16,18,20,22,24,26,28,30,32,34,36,38,40,42,44,46,48,50,52,54,56,58,60,62,64,66,68,70,-1,72,74,76,78,80,82,84,86,88,90,92,94,96,98,100,102,104,106,108,110,112,114,116,118,120,122,124,-1,-1,-1,-1,-1,-1,-1,-1,-1,-1,-1,-1,-1,-1,-1,-1,-1,-1,-1,-1,-1,-1,-1,-1,-1,-1,-1,-1,-1,-1,-1,-1,-1,-1,-1,-1,-1,-1,-1,-1,-1,-1,-1,-1,-1,-1,-1,-1,-1,-1,-1,-1,-1,-1,-1,-1,-1,-1,-1,-1,-1,-1],"split_conditions":[7.944587E-5,4.1546926E-5,8.32E1,5.918132E-5,5.863183E-5,4.68E1,1.5034001E-4,-1.2365809E-4,7.779988E-5,3.9047594E-5,-1.5280068E-4,-1.2061109E-4,-9.1570895E-5,1.1978769E-4,-3.6306682E-4,5.01E1,3.765357E-5,-2.8240674E0,-2.2918848E-2,-3.382207E-4,3.96199E-5,-1.1977112E-3,6.6579356E-5,6.663594E-4,5.0464012E-5,1.8046517E0,6.216496E-1,6.408206E-5,-1.3111143E-1,-6.4709044E-1,2.3583407E-4,-1.1243658E0,1.8899356E0,-8.0109644E-1,6.765E1,9.304561E-2,1.1346708E-1,4.3109336E0,-1.904762E-2,-6.907974E-1,1.955E1,5.94E1,-8.5892546E-1,1.618222E-1,9.944671E-5,2.6444852E0,2.4216102E-1,5.4737196E-5,2.5326347E-3,5.6711357E1,2.047489E-3,-5.109772E-4,6.8563815E-5,6.875E1,9.510996E-5,6.8220925E0,-3.0484876E-5,1.0522119E0,7.735E1,-1.1627853E-3,1.013657E-3,-2.2254037E-2,5.101615E-4,-2.0869693E-2,-4.0534597E-2,4.156621E-2,-6.1919935E-2,3.4992438E-2,-5.1183145E-2,-4.1723024E-2,2.4995698E-2,-3.6593746E-2,-1.577655E-2,2.0543853E-2,1.2494259E-1,4.7295306E-2,-4.2164065E-2,-2.0780543E-2,6.522638E-2,-4.109861E-2,-2.0430943E-2,-5.6778397E-2,3.23224E-2,1.3140841E-2,-3.328214E-2,6.499874E-2,-1.9991072E-2,-1.0589431E-2,9.781274E-3,-2.0428551E-2,-3.9679736E-2,-9.45575E-3,-2.2730717E-2,-5.2682478E-2,-1.2180144E-3,7.551265E-2,-4.399053E-2,-3.504772E-2,3.1866785E-2,-1.47966435E-2,6.330824E-3,9.4195595E-3,5.595047E-4,2.1254577E-2,-5.0069015E-2,-5.0004814E-3,1.040364E-2,-1.0831456E-2,-1.2612268E-3,3.9271206E-2,-4.553264E-2,1.116064E-2,-2.9850511E-3,1.1755877E-2,3.733857E-2,-1.6324377E-2,7.3883715E-3,2.3289086E-2,9.388354E-2,2.0989591E-2,9.776168E-2,1.5257536E-2,5.5191596E-3,2.1168182E-2,2.2085551E-3],"split_indices":[9,5,10,9,9,10,5,8,9,21,20,20,6,9,21,11,7,18,15,2,9,8,7,9,5,14,19,5,23,19,7,18,19,19,11,0,16,17,22,15,11,10,23,16,8,17,18,7,6,19,8,8,7,11,3,19,25,14,11,6,9,18,5,0,0,0,0,0,0,0,0,0,0,0,0,0,0,0,0,0,0,0,0,0,0,0,0,0,0,0,0,0,0,0,0,0,0,0,0,0,0,0,0,0,0,0,0,0,0,0,0,0,0,0,0,0,0,0,0,0,0,0,0,0,0],"split_type":[0,0,0,0,0,0,0,0,0,0,0,0,0,0,0,0,0,0,0,0,0,0,0,0,0,0,0,0,0,0,0,0,0,0,0,0,0,0,0,0,0,0,0,0,0,0,0,0,0,0,0,0,0,0,0,0,0,0,0,0,0,0,0,0,0,0,0,0,0,0,0,0,0,0,0,0,0,0,0,0,0,0,0,0,0,0,0,0,0,0,0,0,0,0,0,0,0,0,0,0,0,0,0,0,0,0,0,0,0,0,0,0,0,0,0,0,0,0,0,0,0,0,0,0,0],"sum_hessian":[5.349637E4,1.6800545E4,3.669583E4,5.105586E3,1.1694958E4,1.5731318E4,2.0964508E4,4.5768643E3,5.287219E2,4.2827964E3,7.4121616E3,5.1204365E3,1.0610882E4,7.6210264E3,1.3343482E4,1.3997906E3,3.1770735E3,5.147459E2,1.3975967E1,2.496077E3,1.7867194E3,1.2948777E3,6.117284E3,1.1690951E3,3.9513413E3,4.610609E3,6.000273E3,2.5625305E3,5.0584956E3,4.8995176E3,8.443965E3,1.3643204E3,3.5470165E1,2.09904E3,1.0780334E3,2.4851592E0,5.1226074E2,6.9064584E0,7.0695086E0,2.6944677E1,2.469132E3,2.0948747E2,1.5772319E3,3.7546547E1,1.257331E3,2.7444368E3,3.3728474E3,1.1320762E3,3.7018875E1,5.0266385E2,3.4486775E3,4.5474014E3,6.3207603E1,2.2437183E3,3.7565544E3,1.0065528E2,2.4618752E3,2.0672915E3,2.9912043E3,6.366437E1,4.8358535E3,5.1069253E3,3.3370393E3,1.2529391E2,1.2390266E3,2.738705E1,8.083114E0,5.1975455E0,2.0938423E3,1.0666829E3,1.1350576E1,3.0611557E2,2.061452E2,2.99964E0,3.9068184E0,2.1171875E0,4.952321E0,6.078236E0,2.0866442E1,3.3289243E2,2.1362397E3,1.942399E2,1.5247585E1,2.623459E1,1.5509973E3,2.5883093E1,1.1663457E1,1.0711935E3,1.8613765E2,2.5157903E3,2.2864633E2,2.3092905E3,1.063557E3,2.6974907E1,1.1051013E3,2.8755928E1,8.262947E0,4.7598663E2,2.667723E1,3.1833743E3,2.6530316E2,2.2207856E3,2.3266155E3,5.117012E0,5.809059E1,1.2098439E3,1.0338744E3,2.1840344E3,1.5725201E3,8.812775E1,1.2527531E1,5.413309E2,1.9205444E3,1.8636101E3,2.0368126E2,1.9039642E2,2.8008079E3,2.6758354E1,3.6906017E1,4.818263E3,1.759024E1,2.2304392E3,2.876486E3,2.9442615E3,3.9277774E2],"tree_param":{"num_deleted":"0","num_feature":"28","num_nodes":"125","size_leaf_vector":"1"}},{"base_weights":[-4.1005086E-2,-2.431762E-1,4.9740322E-2,-3.7189975E-1,-1.7596151E-1,-9.422872E-3,1.3795084E-1,-4.1143265E-1,-3.0177176E-1,-2.5312895E-1,-1.4919089E-1,-7.4377395E-2,2.3184422E-2,9.546307E-2,2.0118628E-1,-4.8319432E-1,-3.833992E-1,-4.9907696E-1,-2.859E-1,-3.0004504E-1,-1.9774184E-1,-1.560089E-1,7.4213624E-2,-1.3669333E-1,-3.4062415E-2,3.917803E-2,-4.8366994E-2,8.014048E-2,2.718408E-1,1.8999411E-1,3.7679645E-1,-4.2639318E-1,-5.206277E-1,-3.1340638E-1,-4.084484E-1,-5.20742E-1,2.7509227E-1,-2.5895062E-1,-3.9146873E-1,-3.026965E-1,9.372054E-2,-2.6329914E-1,-9.90892E-2,-1.790106E-1,-9.480044E-2,3.4786612E-1,-7.380671E-2,-4.430034E-2,-1.9461764E-1,-5.9363518E-2,8.2292035E-2,1.47227915E-2,1.06436364E-1,-2.4995698E-1,-2.0320201E-2,1.2279223E-1,3.7685234E-2,2.0837525E-1,3.976024E-1,1.2860973E-1,2.2038908E-1,9.838824E-1,3.3345821E-1,-1.9232955E-2,-4.6058144E-2,-5.24812E-2,2.2692975E-2,-3.3162918E-2,3.3055834E-2,-3.837578E-2,-5.4724425E-2,-4.3210953E-2,-6.578404E-2,6.196096E-2,-3.9038982E-2,3.6802497E-2,-2.6537834E-2,-4.004204E-2,1.0064148E-1,7.939912E-2,-3.0571816E-2,3.217112E-2,-2.793296E-2,7.491439E-2,-1.0885294E-2,-4.9260724E-2,-1.7359227E-2,4.4062912E-2,-1.0804023E-2,-3.4056522E-3,5.2549925E-2,3.307285E-2,-1.476904E-2,6.674564E-3,-1.2507896E-2,-1.4099427E-2,-2.9183289E-2,-4.3651774E-3,-2.5850696E-2,2.6644057E-2,-2.4981183E-4,-3.5820329E-3,2.8984433E-3,-6.843667E-3,1.296886E-2,6.807035E-2,-3.0197142E-2,-4.2168405E-3,1.8930886E-2,4.6432195E-3,1.6079543E-2,1.7158259E-2,1.969259E-3,2.490478E-2,-1.609313E-2,4.2166207E-2,-4.0037435E-2,4.1021613E-4,2.1612039E-2,1.968976E-2,4.2569574E-2,1.2745978E-1,5.5433568E-2,7.189998E-2,2.7600048E-2],"categories":[],"categories_nodes":[],"categories_segments":[],"categories_sizes":[],"default_left":[0,0,0,0,0,0,0,0,0,0,0,0,0,0,0,0,0,0,0,0,0,0,0,0,0,0,0,0,0,0,0,0,0,0,0,0,0,0,0,0,0,0,0,0,0,0,0,0,0,0,0,0,0,0,0,0,0,0,0,0,0,0,0,0,0,0,0,0,0,0,0,0,0,0,0,0,0,0,0,0,0,0,0,0,0,0,0,0,0,0,0,0,0,0,0,0,0,0,0,0,0,0,0,0,0,0,0,0,0,0,0,0,0,0,0,0,0,0,0,0,0,0,0,0,0],"id":12,"left_children":[1,3,5,7,9,11,13,15,17,19,21,23,25,27,29,31,33,35,37,39,41,43,45,47,49,51,53,55,57,59,61,63,65,67,69,71,73,75,77,79,-1,81,83,85,87,89,91,93,95,97,99,101,103,105,107,109,111,113,115,117,119,121,123,-1,-1,-1,-1,-1,-1,-1,-1,-1,-1,-1,-1,-1,-1,-1,-1,-1,-1,-1,-1,-1,-1,-1,-1,-1,-1,-1,-1,-1,-1,-1,-1,-1,-1,-1,-1,-1,-1,-1,-1,-1,-1,-1,-1,-1,-1,-1,-1,-1,-1,-1,-1,-1,-1,-1,-1,-1,-1,-1,-1,-1,-1],"loss_changes":[9.7763837E2,1.427702E2,1.9195038E2,1.5573669E1,2.2371185E1,4.663083E1,3.9651703E1,7.093689E0,6.261429E0,7.197052E0,1.2282303E1,1.848153E1,1.6776398E1,2.3851234E1,1.1589478E1,1.9309692E0,4.4421997E0,2.674488E0,5.2901917E0,5.2369995E0,8.275204E0,1.0989624E1,9.716982E0,1.5458885E1,1.3161818E1,1.9704947E1,1.5138365E1,1.4714981E1,5.5492477E0,1.0381851E1,8.997673E0,3.1743393E0,2.0140686E0,8.222107E0,6.3573303E0,1.5038681E0,1.3338461E0,6.1936874E0,5.2010803E0,5.2381134E0,0E0,7.315815E0,4.3387656E0,9.567902E0,1.5200392E1,5.727563E0,4.7142754E0,1.0010101E1,9.217911E0,1.1476615E1,1.2471045E1,6.3352594E0,1.299847E1,1.6036682E1,1.0781765E1,1.1758656E1,9.814564E0,7.1159153E0,4.6914635E0,2.0158466E1,1.7907501E1,2.1787033E0,7.1639175E0,0E0,0E0,0E0,0E0,0E0,0E0,0E0,0E0,0E0,0E0,0E0,0E0,0E0,0E0,0E0,0E0,0E0,0E0,0E0,0E0,0E0,0E0,0E0,0E0,0E0,